{"learner":{"attributes":{"scikit_learn":"{\"_estimator_type\": \"classifier\"}"},"feature_names":["temp","o2","chl","noise"],"feature_types":["float","float","float","float"],"gradient_booster":{"model":{"cats":{"enc":[],"feature_segments":[],"sorted_idx":[]},"gbtree_model_param":{"num_parallel_tree":"1","num_trees":"100"},"iteration_indptr":[0,1,2,3,4,5,6,7,8,9,10,11,12,13,14,15,16,17,18,19,20,21,22,23,24,25,26,27,28,29,30,31,32,33,34,35,36,37,38,39,40,41,42,43,44,45,46,47,48,49,50,51,52,53,54,55,56,57,58,59,60,61,62,63,64,65,66,67,68,69,70,71,72,73,74,75,76,77,78,79,80,81,82,83,84,85,86,87,88,89,90,91,92,93,94,95,96,97,98,99,100],"tree_info":[0,0,0,0,0,0,0,0,0,0,0,0,0,0,0,0,0,0,0,0,0,0,0,0,0,0,0,0,0,0,0,0,0,0,0,0,0,0,0,0,0,0,0,0,0,0,0,0,0,0,0,0,0,0,0,0,0,0,0,0,0,0,0,0,0,0,0,0,0,0,0,0,0,0,0,0,0,0,0,0,0,0,0,0,0,0,0,0,0,0,0,0,0,0,0,0,0,0,0,0],"trees":[{"base_weights":[-6.6345685E-8,-1.1199571E-1,9.441517E-1,2.037528E0,-1.10349916E-1,-1.1032035E-1,5.48617E0,8.201643E-1,-1.0316332E-1],"categories":[],"categories_nodes":[],"categories_segments":[],"categories_sizes":[],"default_left":[0,0,0,0,0,0,0,0,0],"id":0,"left_children":[1,-1,3,5,-1,-1,7,-1,-1],"loss_changes":[2.1978836E2,0E0,2.5474518E2,8.0618823E2,0E0,0E0,6.346112E2,0E0,0E0],"parents":[2147483647,0,0,2,2,3,3,6,6],"right_children":[2,-1,4,6,-1,-1,8,-1,-1],"split_conditions":[3.797399E0,-1.1199571E-1,2.302466E1,1.6984192E1,-1.10349916E-1,-1.1032035E-1,7.513297E1,8.201643E-1,-1.0316332E-1],"split_indices":[1,0,0,0,0,0,3,0,0],"split_type":[0,0,0,0,0,0,0,0,0],"sum_hessian":[2.058555E2,9.4075966E1,1.1177954E2,7.287285E1,3.890669E1,3.849498E1,3.437787E1,2.4085094E1,1.0292775E1],"tree_param":{"num_deleted":"0","num_feature":"4","num_nodes":"9","size_leaf_vector":"1"}},{"base_weights":[-3.5189375E-2,-1.1050745E-1,7.236029E-1,1.4766365E0,-1.0876242E-1,-1.0873115E-1,3.239608E0,4.213903E-1,-1.0123672E-1],"categories":[],"categories_nodes":[],"categories_segments":[],"categories_sizes":[],"default_left":[0,0,0,0,0,0,0,0,0],"id":1,"left_children":[1,-1,3,5,-1,-1,7,-1,-1],"loss_changes":[1.7067682E2,0E0,1.6940945E2,3.9824625E2,0E0,0E0,2.1967029E2,0E0,0E0],"parents":[2147483647,0,0,2,2,3,3,6,6],"right_children":[2,-1,4,6,-1,-1,8,-1,-1],"split_conditions":[3.797399E0,-1.1050745E-1,2.302466E1,1.6984192E1,-1.0876242E-1,-1.0873115E-1,7.513297E1,4.213903E-1,-1.0123672E-1],"split_indices":[1,0,0,0,0,0,3,0,0],"split_type":[0,0,0,0,0,0,0,0,0],"sum_hessian":[2.082546E2,8.622389E1,1.2203069E2,8.6325035E1,3.5705666E1,3.532865E1,5.099638E1,4.1496788E1,9.499595E0],"tree_param":{"num_deleted":"0","num_feature":"4","num_nodes":"9","size_leaf_vector":"1"}},{"base_weights":[-4.5658197E-2,-1.0917264E-1,6.223833E-1,1.2339932E0,-1.0731329E-1,-1.0728007E-1,2.4947908E0,3.1095695E-1,-9.940533E-2],"categories":[],"categories_nodes":[],"categories_segments":[],"categories_sizes":[],"default_left":[0,0,0,0,0,0,0,0,0],"id":2,"left_children":[1,-1,3,5,-1,-1,7,-1,-1],"loss_changes":[1.4335849E2,0E0,1.3119421E2,2.7170993E2,0E0,0E0,1.3202414E2,0E0,0E0],"parents":[2147483647,0,0,2,2,3,3,6,6],"right_children":[2,-1,4,6,-1,-1,8,-1,-1],"split_conditions":[3.797399E0,-1.0917264E-1,2.302466E1,1.6984192E1,-1.0731329E-1,-1.0728007E-1,7.513297E1,3.1095695E-1,-9.940533E-2],"split_indices":[1,0,0,0,0,0,3,0,0],"split_type":[0,0,0,0,0,0,0,0,0],"sum_hessian":[2.0317221E2,7.893531E1,1.242369E2,9.1502235E1,3.273466E1,3.2389862E1,5.9112373E1,5.0348957E1,8.763417E0],"tree_param":{"num_deleted":"0","num_feature":"4","num_nodes":"9","size_leaf_vector":"1"}},{"base_weights":[-5.1099334E-2,-1.0796838E-1,5.560484E-1,1.0822486E0,-1.05979435E-1,-1.05944E-1,2.0850756E0,2.5415885E-1,-9.76491E-2],"categories":[],"categories_nodes":[],"categories_segments":[],"categories_sizes":[],"default_left":[0,0,0,0,0,0,0,0,0],"id":3,"left_children":[1,-1,3,5,-1,-1,7,-1,-1],"loss_changes":[1.23170044E2,0E0,1.06644684E2,2.0429492E2,0E0,0E0,9.252075E1,0E0,0E0],"parents":[2147483647,0,0,2,2,3,3,6,6],"right_children":[2,-1,4,6,-1,-1,8,-1,-1],"split_conditions":[3.797399E0,-1.0796838E-1,2.302466E1,1.6984192E1,-1.05979435E-1,-1.05944E-1,7.513297E1,2.5415885E-1,-9.76491E-2],"split_indices":[1,0,0,0,0,0,3,0,0],"split_type":[0,0,0,0,0,0,0,0,0],"sum_hessian":[1.9526767E2,7.219017E1,1.230775E2,9.30922E1,2.9985302E1,2.9670317E1,6.3421883E1,5.5339935E1,8.081946E0],"tree_param":{"num_deleted":"0","num_feature":"4","num_nodes":"9","size_leaf_vector":"1"}},{"base_weights":[-5.4486338E-2,-1.0687522E-1,5.079221E-1,9.761299E-1,-1.0474109E-1,-1.047032E-1,1.8212972E0,2.1900526E-1,-9.595115E-2],"categories":[],"categories_nodes":[],"categories_segments":[],"categories_sizes":[],"default_left":[0,0,0,0,0,0,0,0,0],"id":4,"left_children":[1,-1,3,5,-1,-1,7,-1,-1],"loss_changes":[1.0711447E2,0E0,8.903653E1,1.616376E2,0E0,0E0,7.004132E1,0E0,0E0],"parents":[2147483647,0,0,2,2,3,3,6,6],"right_children":[2,-1,4,6,-1,-1,8,-1,-1],"split_conditions":[3.797399E0,-1.0687522E-1,2.302466E1,1.6984192E1,-1.0474109E-1,-1.047032E-1,7.513297E1,2.1900526E-1,-9.595115E-2],"split_indices":[1,0,0,0,0,0,3,0,0],"split_type":[0,0,0,0,0,0,0,0,0],"sum_hessian":[1.858263E2,6.596413E1,1.1986217E2,9.241464E1,2.744753E1,2.7160051E1,6.5254585E1,5.780206E1,7.4525275E0],"tree_param":{"num_deleted":"0","num_feature":"4","num_nodes":"9","size_leaf_vector":"1"}},{"base_weights":[-5.6870725E-2,-1.0587644E-1,4.7096106E-1,8.970849E-1,-1.0358113E-1,-1.0354054E-1,1.6361587E0,1.9498986E0,-9.4297245E-2,1.9661306E-1,5.0016213E-2],"categories":[],"categories_nodes":[],"categories_segments":[],"categories_sizes":[],"default_left":[0,0,0,0,0,0,0,0,0,0,0],"id":5,"left_children":[1,-1,3,5,-1,-1,7,9,-1,-1,-1],"loss_changes":[9.386945E1,0E0,7.562174E1,1.3197984E2,0E0,0E0,5.5545578E1,4.167633E-1,0E0,0E0,0E0],"parents":[2147483647,0,0,2,2,3,3,6,6,7,7],"right_children":[2,-1,4,6,-1,-1,8,10,-1,-1,-1],"split_conditions":[3.797399E0,-1.0587644E-1,2.302466E1,1.6984192E1,-1.0358113E-1,-1.0354054E-1,7.513297E1,2.2865765E1,-9.4297245E-2,1.9661306E-1,5.0016213E-2],"split_indices":[1,0,0,0,0,0,3,0,0,0,0],"split_type":[0,0,0,0,0,0,0,0,0,0,0],"sum_hessian":[1.755607E2,6.023015E1,1.1533055E2,9.022035E1,2.5110197E1,2.4848057E1,6.537229E1,5.85E1,6.872295E0,5.75E1,1E0],"tree_param":{"num_deleted":"0","num_feature":"4","num_nodes":"11","size_leaf_vector":"1"}},{"base_weights":[-5.8419444E-2,-1.04957595E-1,4.4191712E-1,8.362364E-1,-1.0248462E-1,-1.02441065E-1,1.4995105E0,1.7761067E-1,-9.267546E-2],"categories":[],"categories_nodes":[],"categories_segments":[],"categories_sizes":[],"default_left":[0,0,0,0,0,0,0,0,0],"id":6,"left_children":[1,-1,3,5,-1,-1,7,-1,-1],"loss_changes":[8.275112E1,0E0,6.504004E1,1.1015102E2,0E0,0E0,4.5460052E1,0E0,0E0],"parents":[2147483647,0,0,2,2,3,3,6,6],"right_children":[2,-1,4,6,-1,-1,8,-1,-1],"split_conditions":[3.797399E0,-1.04957595E-1,2.302466E1,1.6984192E1,-1.0248462E-1,-1.02441065E-1,7.513297E1,1.7761067E-1,-9.267546E-2],"split_indices":[1,0,0,0,0,0,3,0,0],"split_type":[0,0,0,0,0,0,0,0,0],"sum_hessian":[1.649313E2,5.4959637E1,1.09971664E2,8.701006E1,2.2961596E1,2.2722733E1,6.428733E1,5.7949062E1,6.33827E0],"tree_param":{"num_deleted":"0","num_feature":"4","num_nodes":"9","size_leaf_vector":"1"}},{"base_weights":[-6.002199E-2,-1.0410608E-1,4.1760245E-1,7.868711E-1,-1.0143838E-1,-1.0139161E-1,1.3931483E0,1.6431808E-1,-9.107586E-2],"categories":[],"categories_nodes":[],"categories_segments":[],"categories_sizes":[],"default_left":[0,0,0,0,0,0,0,0,0],"id":7,"left_children":[1,-1,3,5,-1,-1,7,-1,-1],"loss_changes":[7.318293E1,0E0,5.6391193E1,9.327807E1,0E0,0E0,3.8001457E1,0E0,0E0],"parents":[2147483647,0,0,2,2,3,3,6,6],"right_children":[2,-1,4,6,-1,-1,8,-1,-1],"split_conditions":[3.797399E0,-1.0410608E-1,2.302466E1,1.6984192E1,-1.0143838E-1,-1.0139161E-1,7.513297E1,1.6431808E-1,-9.107586E-2],"split_indices":[1,0,0,0,0,0,3,0,0],"split_type":[0,0,0,0,0,0,0,0,0],"sum_hessian":[1.5425635E2,5.01234E1,1.0413295E2,8.314318E1,2.0989763E1,2.0772264E1,6.237092E1,5.6523468E1,5.84745E0],"tree_param":{"num_deleted":"0","num_feature":"4","num_nodes":"9","size_leaf_vector":"1"}},{"base_weights":[-6.1496455E-2,-1.0331076E-1,3.9711475E-1,7.462615E-1,-1.0043074E-1,-1.003805E-1,1.3084137E0,1.538825E-1,-8.949026E-2],"categories":[],"categories_nodes":[],"categories_segments":[],"categories_sizes":[],"default_left":[0,0,0,0,0,0,0,0,0],"id":8,"left_children":[1,-1,3,5,-1,-1,7,-1,-1],"loss_changes":[6.490895E1,0E0,4.921782E1,7.989306E1,0E0,0E0,3.2288284E1,0E0,0E0],"parents":[2147483647,0,0,2,2,3,3,6,6],"right_children":[2,-1,4,6,-1,-1,8,-1,-1],"split_conditions":[3.797399E0,-1.0331076E-1,2.302466E1,1.6984192E1,-1.0043074E-1,-1.003805E-1,7.513297E1,1.538825E-1,-8.949026E-2],"split_indices":[1,0,0,0,0,0,3,0,0],"split_type":[0,0,0,0,0,0,0,0,0],"sum_hessian":[1.437484E2,4.5692287E1,9.805611E1,7.887331E1,1.9182796E1,1.8984865E1,5.9888447E1,5.449159E1,5.396858E0],"tree_param":{"num_deleted":"0","num_feature":"4","num_nodes":"9","size_leaf_vector":"1"}},{"base_weights":[-6.2933356E-2,-1.02561675E-1,3.7948695E-1,7.121457E-1,-9.9451266E-2,-9.939729E-2,1.2392391E0,1.4547797E0,-8.791209E-2,1.4714915E-1,4.780484E-2],"categories":[],"categories_nodes":[],"categories_segments":[],"categories_sizes":[],"default_left":[0,0,0,0,0,0,0,0,0,0,0],"id":9,"left_children":[1,-1,3,5,-1,-1,7,9,-1,-1,-1],"loss_changes":[5.769864E1,0E0,4.3179314E1,6.902938E1,0E0,0E0,2.7780327E1,1.6260529E-1,0E0,0E0,0E0],"parents":[2147483647,0,0,2,2,3,3,6,6,7,7],"right_children":[2,-1,4,6,-1,-1,8,10,-1,-1,-1],"split_conditions":[3.797399E0,-1.02561675E-1,2.302466E1,1.6984192E1,-9.9451266E-2,-9.939729E-2,7.513297E1,2.2817495E1,-8.791209E-2,1.4714915E-1,4.780484E-2],"split_indices":[1,0,0,0,0,0,3,0,0,0,0],"split_type":[0,0,0,0,0,0,0,0,0,0,0],"sum_hessian":[1.3355739E2,4.1637707E1,9.191967E1,7.439066E1,1.7529009E1,1.7348982E1,5.7041683E1,5.2058086E1,4.9835963E0,5.068434E1,1.3737459E0],"tree_param":{"num_deleted":"0","num_feature":"4","num_nodes":"11","size_leaf_vector":"1"}},{"base_weights":[-6.398628E-2,-1.0184999E-1,3.6456084E-1,6.835534E-1,-9.849056E-2,-9.84326E-2,1.1822715E0,1.3863523E0,-8.633619E-2,1.4028296E-1,4.543036E-2],"categories":[],"categories_nodes":[],"categories_segments":[],"categories_sizes":[],"default_left":[0,0,0,0,0,0,0,0,0,0,0],"id":10,"left_children":[1,-1,3,5,-1,-1,7,9,-1,-1,-1],"loss_changes":[5.1419353E1,0E0,3.8065308E1,6.009382E1,0E0,0E0,2.4155052E1,1.3652802E-1,0E0,0E0,0E0],"parents":[2147483647,0,0,2,2,3,3,6,6,7,7],"right_children":[2,-1,4,6,-1,-1,8,10,-1,-1,-1],"split_conditions":[3.797399E0,-1.0184999E-1,2.302466E1,1.6984192E1,-9.849056E-2,-9.84326E-2,7.513297E1,2.2817495E1,-8.633619E-2,1.4028296E-1,4.543036E-2],"split_indices":[1,0,0,0,0,0,3,0,0,0,0],"split_type":[0,0,0,0,0,0,0,0,0,0,0],"sum_hessian":[1.2379537E2,3.7931953E1,8.586341E1,6.984631E1,1.6017103E1,1.5853433E1,5.3992878E1,4.9388012E1,4.604865E0,4.803374E1,1.354273E0],"tree_param":{"num_deleted":"0","num_feature":"4","num_nodes":"11","size_leaf_vector":"1"}},{"base_weights":[-6.509768E-2,-1.0116762E-1,3.5130426E-1,6.587578E-1,-9.754018E-2,-9.7477995E-2,1.1340562E0,1.3291913E0,-8.475871E-2,1.3457464E-1,4.3193933E-2],"categories":[],"categories_nodes":[],"categories_segments":[],"categories_sizes":[],"default_left":[0,0,0,0,0,0,0,0,0,0,0],"id":11,"left_children":[1,-1,3,5,-1,-1,7,9,-1,-1,-1],"loss_changes":[4.5886387E1,0E0,3.3668747E1,5.2605297E1,0E0,0E0,2.11735E1,1.2554932E-1,0E0,0E0,0E0],"parents":[2147483647,0,0,2,2,3,3,6,6,7,7],"right_children":[2,-1,4,6,-1,-1,8,10,-1,-1,-1],"split_conditions":[3.797399E0,-1.0116762E-1,2.302466E1,1.6984192E1,-9.754018E-2,-9.7477995E-2,7.513297E1,2.2817495E1,-8.475871E-2,1.3457464E-1,4.3193933E-2],"split_indices":[1,0,0,0,0,0,3,0,0,0,0],"split_type":[0,0,0,0,0,0,0,0,0,0,0],"sum_hessian":[1.14514786E2,3.454848E1,7.996631E1,6.5330055E1,1.4636254E1,1.4487513E1,5.084254E1,4.6584545E1,4.257995E0,4.5249798E1,1.3347483E0],"tree_param":{"num_deleted":"0","num_feature":"4","num_nodes":"11","size_leaf_vector":"1"}},{"base_weights":[-6.629502E-2,-1.0050726E-1,3.3934262E-1,6.369346E-1,-9.65925E-2,-9.652583E-2,1.092619E0,1.2807271E0,-8.317696E-2,1.2976174E-1,4.1084193E-2],"categories":[],"categories_nodes":[],"categories_segments":[],"categories_sizes":[],"default_left":[0,0,0,0,0,0,0,0,0,0,0],"id":12,"left_children":[1,-1,3,5,-1,-1,7,9,-1,-1,-1],"loss_changes":[4.0993065E1,0E0,2.986112E1,4.6258453E1,0E0,0E0,1.8684906E1,1.2413788E-1,0E0,0E0,0E0],"parents":[2147483647,0,0,2,2,3,3,6,6,7,7],"right_children":[2,-1,4,6,-1,-1,8,10,-1,-1,-1],"split_conditions":[3.797399E0,-1.0050726E-1,2.302466E1,1.6984192E1,-9.65925E-2,-9.652583E-2,7.513297E1,2.2817495E1,-8.317696E-2,1.2976174E-1,4.1084193E-2],"split_indices":[1,0,0,0,0,0,3,0,0,0,0],"split_type":[0,0,0,0,0,0,0,0,0,0,0],"sum_hessian":[1.05753235E2,3.1462051E1,7.429118E1,6.091501E1,1.3376173E1,1.3241045E1,4.7673965E1,4.373351E1,3.940455E0,4.2418182E1,1.3153268E0],"tree_param":{"num_deleted":"0","num_feature":"4","num_nodes":"11","size_leaf_vector":"1"}},{"base_weights":[-6.759921E-2,-9.98621E-2,3.283863E-1,6.2816006E-1,-9.133769E-1,-9.556922E-2,1.0776446E0,-1.978906E-2,-9.548451E-2,1.2593989E-1,-8.1050225E-2],"categories":[],"categories_nodes":[],"categories_segments":[],"categories_sizes":[],"default_left":[0,0,0,0,0,0,0,0,0,0,0],"id":13,"left_children":[1,-1,3,5,7,-1,9,-1,-1,-1,-1],"loss_changes":[3.6652546E1,0E0,2.6586306E1,4.152593E1,2.2632313E-1,0E0,1.6387829E1,0E0,0E0,0E0,0E0],"parents":[2147483647,0,0,2,2,3,3,4,4,6,6],"right_children":[2,-1,4,6,8,-1,10,-1,-1,-1,-1],"split_conditions":[3.797399E0,-9.98621E-2,2.2949493E1,1.6984192E1,2.3174156E1,-9.556922E-2,7.513297E1,-1.978906E-2,-9.548451E-2,1.2593989E-1,-8.1050225E-2],"split_indices":[1,0,0,0,0,0,3,0,0,0,0],"split_type":[0,0,0,0,0,0,0,0,0,0,0],"sum_hessian":[9.7528496E1,2.8648851E1,6.887965E1,5.5883068E1,1.2996578E1,1.2104423E1,4.3778645E1,1.0282031E0,1.1968375E1,4.0238277E1,3.5403666E0],"tree_param":{"num_deleted":"0","num_feature":"4","num_nodes":"11","size_leaf_vector":"1"}},{"base_weights":[-6.9610074E-2,-9.922593E-2,3.1732002E-1,5.993063E-1,-9.469709E-2,-9.460199E-2,1.0240183E0,1.2027042E0,-8.004336E-2,1.221013E-1,3.670474E-2],"categories":[],"categories_nodes":[],"categories_segments":[],"categories_sizes":[],"default_left":[0,0,0,0,0,0,0,0,0,0,0],"id":14,"left_children":[1,-1,3,5,-1,-1,7,9,-1,-1,-1],"loss_changes":[3.2750233E1,0E0,2.3658382E1,3.6127457E1,0E0,0E0,1.481815E1,1.5020752E-1,0E0,0E0,0E0],"parents":[2147483647,0,0,2,2,3,3,6,6,7,7],"right_children":[2,-1,4,6,-1,-1,8,10,-1,-1,-1],"split_conditions":[3.797399E0,-9.922593E-2,2.302466E1,1.6984192E1,-9.469709E-2,-9.460199E-2,7.513297E1,2.2817495E1,-8.004336E-2,1.221013E-1,3.670474E-2],"split_indices":[1,0,0,0,0,0,3,0,0,0,0],"split_type":[0,0,0,0,0,0,0,0,0,0,0],"sum_hessian":[8.985519E1,2.6086504E1,6.376868E1,5.2569584E1,1.1199096E1,1.1068632E1,4.1500954E1,3.8109333E1,3.3916214E0,3.6841022E1,1.2683072E0],"tree_param":{"num_deleted":"0","num_feature":"4","num_nodes":"11","size_leaf_vector":"1"}},{"base_weights":[-7.116997E-2,-9.859291E-2,3.0775115E-1,5.949362E-1,-8.8935137E-1,-9.3618564E-2,1.0183836E0,-2.5152832E-2,-9.338152E-2,1.1932065E-1,-7.782336E-2],"categories":[],"categories_nodes":[],"categories_segments":[],"categories_sizes":[],"default_left":[0,0,0,0,0,0,0,0,0,0,0],"id":15,"left_children":[1,-1,3,5,7,-1,9,-1,-1,-1,-1],"loss_changes":[2.9316046E1,0E0,2.1138306E1,3.2688473E1,1.0542679E-1,0E0,1.3122265E1,0E0,0E0,0E0,0E0],"parents":[2147483647,0,0,2,2,3,3,4,4,6,6],"right_children":[2,-1,4,6,8,-1,10,-1,-1,-1,-1],"split_conditions":[3.797399E0,-9.859291E-2,2.2949493E1,1.6984192E1,2.3227411E1,-9.3618564E-2,7.513297E1,-2.5152832E-2,-9.338152E-2,1.1932065E-1,-7.782336E-2],"split_indices":[1,0,0,0,0,0,3,0,0,0,0],"split_type":[0,0,0,0,0,0,0,0,0,0,0],"sum_hessian":[8.2701164E1,2.3754099E1,5.8947063E1,4.794748E1,1.0999585E1,1.0125248E1,3.782223E1,1.1506516E0,9.848933E0,3.4774315E1,3.0479164E0],"tree_param":{"num_deleted":"0","num_feature":"4","num_nodes":"11","size_leaf_vector":"1"}},{"base_weights":[-7.3565915E-2,-9.795757E-2,2.975511E-1,5.678006E-1,-9.275421E-2,-9.261402E-2,9.693369E-1,1.1425465E0,-7.6885685E-2,1.1628755E-1,3.3018615E-2],"categories":[],"categories_nodes":[],"categories_segments":[],"categories_sizes":[],"default_left":[0,0,0,0,0,0,0,0,0,0,0],"id":16,"left_children":[1,-1,3,5,-1,-1,7,9,-1,-1,-1],"loss_changes":[2.6209354E1,0E0,1.888519E1,2.8521343E1,0E0,0E0,1.1952713E1,1.7507935E-1,0E0,0E0,0E0],"parents":[2147483647,0,0,2,2,3,3,6,6,7,7],"right_children":[2,-1,4,6,-1,-1,8,10,-1,-1,-1],"split_conditions":[3.797399E0,-9.795757E-2,2.302466E1,1.6984192E1,-9.275421E-2,-9.261402E-2,7.513297E1,2.2817495E1,-7.6885685E-2,1.1628755E-1,3.3018615E-2],"split_indices":[1,0,0,0,0,0,3,0,0,0,0],"split_type":[0,0,0,0,0,0,0,0,0,0,0],"sum_hessian":[7.60825E1,2.163219E1,5.4450306E1,4.5049202E1,9.401106E0,9.26642E0,3.578278E1,3.2851807E1,2.9309738E0,3.162883E1,1.2229759E0],"tree_param":{"num_deleted":"0","num_feature":"4","num_nodes":"11","size_leaf_vector":"1"}},{"base_weights":[-7.542712E-2,-9.731477E-2,2.8876394E-1,5.667319E-1,-8.638345E-1,-9.1584064E-2,9.707622E-1,-2.3465594E-2,-9.131376E-2,1.1420468E-1,-7.457821E-2],"categories":[],"categories_nodes":[],"categories_segments":[],"categories_sizes":[],"default_left":[0,0,0,0,0,0,0,0,0,0,0],"id":17,"left_children":[1,-1,3,5,7,-1,9,-1,-1,-1,-1],"loss_changes":[2.3474737E1,0E0,1.6905704E1,2.5979294E1,1.0685539E-1,0E0,1.0672403E1,0E0,0E0,0E0,0E0],"parents":[2147483647,0,0,2,2,3,3,4,4,6,6],"right_children":[2,-1,4,6,8,-1,10,-1,-1,-1,-1],"split_conditions":[3.797399E0,-9.731477E-2,2.2949493E1,1.6984192E1,2.3227411E1,-9.1584064E-2,7.513297E1,-2.3465594E-2,-9.131376E-2,1.1420468E-1,-7.457821E-2],"split_indices":[1,0,0,0,0,0,3,0,0,0,0],"split_type":[0,0,0,0,0,0,0,0,0,0,0],"sum_hessian":[6.994145E1,1.9702723E1,5.0238728E1,4.0886566E1,9.352163E0,8.484881E0,3.2401684E1,1.0981123E0,8.25405E0,2.9766165E1,2.6355214E0],"tree_param":{"num_deleted":"0","num_feature":"4","num_nodes":"11","size_leaf_vector":"1"}},{"base_weights":[-7.819381E-2,-9.665968E-2,2.7907255E-1,5.400536E-1,-9.071884E-2,-9.0525016E-2,9.235904E-1,1.0940922E0,-7.37171E-2,1.1241882E-1,3.3016983E-2],"categories":[],"categories_nodes":[],"categories_segments":[],"categories_sizes":[],"default_left":[0,0,0,0,0,0,0,0,0,0,0],"id":18,"left_children":[1,-1,3,5,-1,-1,7,9,-1,-1,-1],"loss_changes":[2.0991848E1,0E0,1.5145605E1,2.2692635E1,0E0,0E0,9.770081E0,2.9810333E-1,0E0,0E0,0E0],"parents":[2147483647,0,0,2,2,3,3,6,6,7,7],"right_children":[2,-1,4,6,-1,-1,8,10,-1,-1,-1],"split_conditions":[3.797399E0,-9.665968E-2,2.302466E1,1.6984192E1,-9.071884E-2,-9.0525016E-2,7.513297E1,9.409923E-1,-7.37171E-2,1.1241882E-1,3.3016983E-2],"split_indices":[1,0,0,0,0,0,3,2,0,0,0],"split_type":[0,0,0,0,0,0,0,0,0,0,0],"sum_hessian":[6.428773E1,1.7948994E1,4.633873E1,3.842898E1,7.909751E0,7.7738953E0,3.0655087E1,2.8110352E1,2.5447345E0,2.659115E1,1.519201E0],"tree_param":{"num_deleted":"0","num_feature":"4","num_nodes":"11","size_leaf_vector":"1"}},{"base_weights":[-8.031666E-2,-9.5987715E-2,2.7057558E-1,5.422246E-1,-8.422491E-1,-8.943382E-2,9.3104035E-1,-2.3835063E-2,-8.912718E-2,1.1010505E-1,-7.132951E-2],"categories":[],"categories_nodes":[],"categories_segments":[],"categories_sizes":[],"default_left":[0,0,0,0,0,0,0,0,0,0,0],"id":19,"left_children":[1,-1,3,5,7,-1,9,-1,-1,-1,-1],"loss_changes":[1.8804964E1,0E0,1.3677115E1,2.0807026E1,5.3195E-2,0E0,8.789921E0,0E0,0E0,0E0,0E0],"parents":[2147483647,0,0,2,2,3,3,4,4,6,6],"right_children":[2,-1,4,6,8,-1,10,-1,-1,-1,-1],"split_conditions":[3.797399E0,-9.5987715E-2,2.2949493E1,1.6984192E1,2.3227411E1,-8.943382E-2,7.513297E1,-2.3835063E-2,-8.912718E-2,1.1010505E-1,-7.132951E-2],"split_indices":[1,0,0,0,0,0,3,0,0,0,0],"split_type":[0,0,0,0,0,0,0,0,0,0,0],"sum_hessian":[5.908874E1,1.6355602E1,4.273314E1,3.4760567E1,7.972571E0,7.127253E0,2.7633314E1,1.0387328E0,6.933838E0,2.5343422E1,2.2898932E0],"tree_param":{"num_deleted":"0","num_feature":"4","num_nodes":"11","size_leaf_vector":"1"}},{"base_weights":[-8.352387E-2,-9.5294565E-2,2.6100004E-1,5.2992195E-1,-8.262897E-1,-8.8308066E-2,9.126535E-1,-2.2657735E-2,-8.7985866E-2,1.08300485E-1,-6.971962E-2],"categories":[],"categories_nodes":[],"categories_segments":[],"categories_sizes":[],"default_left":[0,0,0,0,0,0,0,0,0,0,0],"id":20,"left_children":[1,-1,3,5,7,-1,9,-1,-1,-1,-1],"loss_changes":[1.6811972E1,0E0,1.2247129E1,1.8646248E1,7.0477486E-2,0E0,8.008562E0,0E0,0E0,0E0,0E0],"parents":[2147483647,0,0,2,2,3,3,4,4,6,6],"right_children":[2,-1,4,6,8,-1,10,-1,-1,-1,-1],"split_conditions":[3.797399E0,-9.5294565E-2,2.2949493E1,1.6984192E1,2.3227411E1,-8.8308066E-2,7.513297E1,-2.2657735E-2,-8.7985866E-2,1.08300485E-1,-6.971962E-2],"split_indices":[1,0,0,0,0,0,3,0,0,0,0],"split_type":[0,0,0,0,0,0,0,0,0,0,0],"sum_hessian":[5.4296253E1,1.4908357E1,3.9387897E1,3.1988684E1,7.3992133E0,6.539236E0,2.5449448E1,1.0355642E0,6.3636494E0,2.3310081E1,2.1393657E0],"tree_param":{"num_deleted":"0","num_feature":"4","num_nodes":"11","size_leaf_vector":"1"}},{"base_weights":[-8.6930715E-2,-9.457621E-2,2.5141558E-1,5.1795405E-1,-8.0986524E-1,-8.7146E-2,8.952908E-1,-2.1537727E-2,-8.680829E-2,1.06641546E-1,-6.811758E-2],"categories":[],"categories_nodes":[],"categories_segments":[],"categories_sizes":[],"default_left":[0,0,0,0,0,0,0,0,0,0,0],"id":21,"left_children":[1,-1,3,5,7,-1,9,-1,-1,-1,-1],"loss_changes":[1.5027253E1,0E0,1.09711E1,1.6730778E1,8.568239E-2,0E0,7.3140793E0,0E0,0E0,0E0,0E0],"parents":[2147483647,0,0,2,2,3,3,4,4,6,6],"right_children":[2,-1,4,6,8,-1,10,-1,-1,-1,-1],"split_conditions":[3.797399E0,-9.457621E-2,2.2949493E1,1.6984192E1,2.3227411E1,-8.7146E-2,7.513297E1,-2.1537727E-2,-8.680829E-2,1.06641546E-1,-6.811758E-2],"split_indices":[1,0,0,0,0,0,3,0,0,0,0],"split_type":[0,0,0,0,0,0,0,0,0,0,0],"sum_hessian":[4.989597E1,1.3594223E1,3.6301746E1,2.9423937E1,6.8778067E0,6.0045877E0,2.341935E1,1.0326313E0,5.8451757E0,2.141798E1,2.001369E0],"tree_param":{"num_deleted":"0","num_feature":"4","num_nodes":"11","size_leaf_vector":"1"}},{"base_weights":[-9.054032E-2,-9.3828835E-2,2.4177006E-1,4.8957297E-1,-8.6455815E-2,-8.040084E-2,7.188465E-1,1.051024E-1,-7.058182E-1,-8.4567875E-2,-3.0382132E-2],"categories":[],"categories_nodes":[],"categories_segments":[],"categories_sizes":[],"default_left":[0,0,0,0,0,0,0,0,0,0,0],"id":22,"left_children":[1,-1,3,5,-1,-1,7,-1,9,-1,-1],"loss_changes":[1.3428379E1,0E0,9.870515E0,9.117308E0,0E0,0E0,1.2565995E1,0E0,4.2309284E-2,0E0,0E0],"parents":[2147483647,0,0,2,2,3,3,6,6,8,8],"right_children":[2,-1,4,6,-1,-1,8,-1,10,-1,-1],"split_conditions":[3.797399E0,-9.3828835E-2,7.513297E1,1.6984192E1,-8.6455815E-2,-8.040084E-2,2.2949493E1,1.051024E-1,5.515373E1,-8.4567875E-2,-3.0382132E-2],"split_indices":[1,0,3,0,0,0,0,0,3,0,0],"split_type":[0,0,0,0,0,0,0,0,0,0,0],"sum_hessian":[4.5861217E1,1.2401235E1,3.3459984E1,2.7792345E1,5.667639E0,3.8068726E0,2.3985472E1,1.9663061E1,4.3224106E0,2.387922E0,1.9344883E0],"tree_param":{"num_deleted":"0","num_feature":"4","num_nodes":"11","size_leaf_vector":"1"}},{"base_weights":[-9.473617E-2,-9.304898E-2,2.3104353E-1,4.790191E-1,-8.53368E-2,-8.476308E-2,8.327658E-1,1.0015721E0,-6.544519E-2,1.0439233E-1,1.6441477E-2],"categories":[],"categories_nodes":[],"categories_segments":[],"categories_sizes":[],"default_left":[0,0,0,0,0,0,0,0,0,0,0],"id":23,"left_children":[1,-1,3,5,-1,-1,7,9,-1,-1,-1],"loss_changes":[1.1980082E1,0E0,8.984904E0,1.3187945E1,0E0,0E0,6.053753E0,5.2703094E-1,0E0,0E0,0E0],"parents":[2147483647,0,0,2,2,3,3,6,6,7,7],"right_children":[2,-1,4,6,-1,-1,8,10,-1,-1,-1],"split_conditions":[3.797399E0,-9.304898E-2,2.302466E1,1.6984192E1,-8.53368E-2,-8.476308E-2,7.513297E1,9.409923E-1,-6.544519E-2,1.0439233E-1,1.6441477E-2],"split_indices":[1,0,0,0,0,0,3,2,0,0,0],"split_type":[0,0,0,0,0,0,0,0,0,0,0],"sum_hessian":[4.2210896E1,1.1318438E1,3.089246E1,2.5597313E1,5.2951455E0,5.094679E0,2.0502634E1,1.8705965E1,1.7966698E0,1.757012E1,1.1358446E0],"tree_param":{"num_deleted":"0","num_feature":"4","num_nodes":"11","size_leaf_vector":"1"}},{"base_weights":[-9.794032E-2,-9.223347E-2,2.2222589E-1,4.856686E-1,-7.6733726E-1,-8.3489604E-2,8.5153204E-1,-2.2220863E-2,-8.302288E-2,1.0235506E-1,-6.289392E-2],"categories":[],"categories_nodes":[],"categories_segments":[],"categories_sizes":[],"default_left":[0,0,0,0,0,0,0,0,0,0,0],"id":24,"left_children":[1,-1,3,5,7,-1,9,-1,-1,-1,-1],"loss_changes":[1.0717878E1,0E0,8.061662E0,1.2260864E1,4.1404724E-2,0E0,5.537077E0,0E0,0E0,0E0,0E0],"parents":[2147483647,0,0,2,2,3,3,4,4,6,6],"right_children":[2,-1,4,6,8,-1,10,-1,-1,-1,-1],"split_conditions":[3.797399E0,-9.223347E-2,2.2949493E1,1.6984192E1,2.3300734E1,-8.3489604E-2,7.513297E1,-2.2220863E-2,-8.302288E-2,1.0235506E-1,-6.289392E-2],"split_indices":[1,0,0,0,0,0,3,0,0,0,0],"split_type":[0,0,0,0,0,0,0,0,0,0,0],"sum_hessian":[3.8830204E1,1.0335802E1,2.8494402E1,2.2905643E1,5.5887594E0,4.6911607E0,1.8214483E1,1.0469809E0,4.5417786E0,1.6594921E1,1.6195613E0],"tree_param":{"num_deleted":"0","num_feature":"4","num_nodes":"11","size_leaf_vector":"1"}},{"base_weights":[-1.0224048E-1,-9.137945E-2,2.1207082E-1,4.5466354E-1,-8.287384E-2,-8.217924E-2,7.9828244E-1,9.693541E-1,-6.2399995E-2,1.0179951E-1,1.2178384E-2],"categories":[],"categories_nodes":[],"categories_segments":[],"categories_sizes":[],"default_left":[0,0,0,0,0,0,0,0,0,0,0],"id":25,"left_children":[1,-1,3,5,-1,-1,7,9,-1,-1,-1],"loss_changes":[9.564519E0,0E0,7.2678766E0,1.0647249E1,0E0,0E0,5.09517E0,5.713148E-1,0E0,0E0,0E0],"parents":[2147483647,0,0,2,2,3,3,6,6,7,7],"right_children":[2,-1,4,6,-1,-1,8,10,-1,-1,-1],"split_conditions":[3.797399E0,-9.137945E-2,2.302466E1,1.6984192E1,-8.287384E-2,-8.217924E-2,7.513297E1,9.409923E-1,-6.2399995E-2,1.0179951E-1,1.2178384E-2],"split_indices":[1,0,0,0,0,0,3,2,0,0,0],"split_type":[0,0,0,0,0,0,0,0,0,0,0],"sum_hessian":[3.573635E1,9.444163E0,2.6292187E1,2.1779066E1,4.5131207E0,4.3241987E0,1.7454868E1,1.5865074E1,1.5897939E0,1.4813852E1,1.0512221E0],"tree_param":{"num_deleted":"0","num_feature":"4","num_nodes":"11","size_leaf_vector":"1"}},{"base_weights":[-1.0589342E-1,-9.048444E-2,2.0286575E-1,4.643317E-1,-7.427726E-2,-8.083344E-2,8.227306E-1,9.986201E-2,-5.9823245E-2],"categories":[],"categories_nodes":[],"categories_segments":[],"categories_sizes":[],"default_left":[0,0,0,0,0,0,0,0,0],"id":26,"left_children":[1,-1,3,5,-1,-1,7,-1,-1],"loss_changes":[8.548654E0,0E0,6.5942106E0,9.977084E0,0E0,0E0,4.702613E0,0E0,0E0],"parents":[2147483647,0,0,2,2,3,3,6,6],"right_children":[2,-1,4,6,-1,-1,8,-1,-1],"split_conditions":[3.797399E0,-9.048444E-2,2.2949493E1,1.6984192E1,-7.427726E-2,-8.083344E-2,7.513297E1,9.986201E-2,-5.9823245E-2],"split_indices":[1,0,0,0,0,0,3,0,0],"split_type":[0,0,0,0,0,0,0,0,0],"sum_hessian":[3.291023E1,8.635157E0,2.4275074E1,1.9415678E1,4.8593965E0,3.9904125E0,1.5425265E1,1.3990694E1,1.4345713E0],"tree_param":{"num_deleted":"0","num_feature":"4","num_nodes":"9","size_leaf_vector":"1"}},{"base_weights":[-1.0966641E-1,-8.9546405E-2,1.9339798E-1,4.4223762E-1,-7.722767E-2,6.8126357E-1,-6.103824E-1,-7.188966E-2,9.858191E-2,-7.8213386E-2,-1.6386272E-2],"categories":[],"categories_nodes":[],"categories_segments":[],"categories_sizes":[],"default_left":[0,0,0,0,0,0,0,0,0,0,0],"id":27,"left_children":[1,-1,3,5,-1,7,9,-1,-1,-1,-1],"loss_changes":[7.6372566E0,0E0,5.9743867E0,5.2652836E0,0E0,7.608264E0,1.8582535E-1,0E0,0E0,0E0,0E0],"parents":[2147483647,0,0,2,2,3,3,5,5,6,6],"right_children":[2,-1,4,6,-1,8,10,-1,-1,-1,-1],"split_conditions":[3.797399E0,-8.9546405E-2,7.38783E1,2.2949493E1,-7.722767E-2,1.6984192E1,5.515373E1,-7.188966E-2,9.858191E-2,-7.8213386E-2,-1.6386272E-2],"split_indices":[1,0,3,0,0,0,3,0,0,0,0],"split_type":[0,0,0,0,0,0,0,0,0,0,0],"sum_hessian":[3.0342268E1,7.9011493E0,2.2441118E1,1.8274183E1,4.166936E0,1.5179955E1,3.0942285E0,2.4689152E0,1.271104E1,1.6918461E0,1.4023823E0],"tree_param":{"num_deleted":"0","num_feature":"4","num_nodes":"11","size_leaf_vector":"1"}},{"base_weights":[-1.1455604E-1,-8.8563696E-2,1.819003E-1,4.209579E-1,-7.924376E-2,-7.814899E-2,7.539224E-1,9.263019E-1,-5.7461757E-2,9.8433994E-2,1.13164075E-2],"categories":[],"categories_nodes":[],"categories_segments":[],"categories_sizes":[],"default_left":[0,0,0,0,0,0,0,0,0,0,0],"id":28,"left_children":[1,-1,3,5,-1,-1,7,9,-1,-1,-1],"loss_changes":[6.799697E0,0E0,5.4127197E0,7.8611584E0,0E0,0E0,3.906371E0,5.2212524E-1,0E0,0E0,0E0],"parents":[2147483647,0,0,2,2,3,3,6,6,7,7],"right_children":[2,-1,4,6,-1,-1,8,10,-1,-1,-1],"split_conditions":[3.797399E0,-8.8563696E-2,2.302466E1,1.6984192E1,-7.924376E-2,-7.814899E-2,7.513297E1,9.328677E-1,-5.7461757E-2,9.8433994E-2,1.13164075E-2],"split_indices":[1,0,0,0,0,0,3,2,0,0,0],"split_type":[0,0,0,0,0,0,0,0,0,0,0],"sum_hessian":[2.8041279E1,7.23519E0,2.080609E1,1.7163029E1,3.6430614E0,3.429798E0,1.3733231E1,1.2423974E1,1.3092569E0,1.1399765E1,1.0242085E0],"tree_param":{"num_deleted":"0","num_feature":"4","num_nodes":"11","size_leaf_vector":"1"}},{"base_weights":[-1.1867931E-1,-8.753517E-2,1.7224588E-1,4.0821716E-1,-7.790177E-2,6.5446085E-1,-5.9262085E-1,-6.933311E-2,9.636172E-2,-7.546648E-2,-1.7289205E-2],"categories":[],"categories_nodes":[],"categories_segments":[],"categories_sizes":[],"default_left":[0,0,0,0,0,0,0,0,0,0,0],"id":29,"left_children":[1,-1,3,5,-1,7,9,-1,-1,-1,-1],"loss_changes":[6.069394E0,0E0,4.864749E0,4.5493126E0,0E0,6.5127163E0,1.3198996E-1,0E0,0E0,0E0,0E0],"parents":[2147483647,0,0,2,2,3,3,5,5,6,6],"right_children":[2,-1,4,6,-1,8,10,-1,-1,-1,-1],"split_conditions":[3.797399E0,-8.753517E-2,7.513297E1,2.2949493E1,-7.790177E-2,1.6984192E1,5.515373E1,-6.933311E-2,9.636172E-2,-7.546648E-2,-1.7289205E-2],"split_indices":[1,0,3,0,0,0,3,0,0,0,0],"split_type":[0,0,0,0,0,0,0,0,0,0,0],"sum_hessian":[2.5886303E1,6.6309342E0,1.9255367E1,1.58856325E1,3.3697352E0,1.302667E1,2.8589625E0,2.1986823E0,1.0827988E1,1.4869263E0,1.3720361E0],"tree_param":{"num_deleted":"0","num_feature":"4","num_nodes":"11","size_leaf_vector":"1"}},{"base_weights":[-1.2434128E-1,-8.64602E-2,1.602467E-1,3.9730418E-1,-7.673771E-2,-7.534438E-2,7.2424287E-1,8.963512E-1,-5.406171E-2,9.6104495E-2,1.2298049E-2],"categories":[],"categories_nodes":[],"categories_segments":[],"categories_sizes":[],"default_left":[0,0,0,0,0,0,0,0,0,0,0],"id":30,"left_children":[1,-1,3,5,-1,-1,7,9,-1,-1,-1],"loss_changes":[5.393194E0,0E0,4.4521985E0,6.44492E0,0E0,0E0,3.253808E0,4.6085262E-1,0E0,0E0,0E0],"parents":[2147483647,0,0,2,2,3,3,6,6,7,7],"right_children":[2,-1,4,6,-1,-1,8,10,-1,-1,-1],"split_conditions":[3.797399E0,-8.64602E-2,2.302466E1,1.6984192E1,-7.673771E-2,-7.534438E-2,7.513297E1,9.2885953E-1,-5.406171E-2,9.6104495E-2,1.2298049E-2],"split_indices":[1,0,0,0,0,0,3,2,0,0,0],"split_type":[0,0,0,0,0,0,0,0,0,0,0],"sum_hessian":[2.394262E1,6.082622E0,1.7859997E1,1.4680135E1,3.1798625E0,2.9593549E0,1.172078E1,1.0573409E1,1.1473707E0,9.533266E0,1.0401438E0],"tree_param":{"num_deleted":"0","num_feature":"4","num_nodes":"11","size_leaf_vector":"1"}},{"base_weights":[-1.2863061E-1,-8.533868E-2,1.5041815E-1,4.1076723E-1,-6.667679E-2,-7.386414E-2,7.589833E-1,9.41032E-2,-5.1630784E-2],"categories":[],"categories_nodes":[],"categories_segments":[],"categories_sizes":[],"default_left":[0,0,0,0,0,0,0,0,0],"id":31,"left_children":[1,-1,3,5,-1,-1,7,-1,-1],"loss_changes":[4.810033E0,0E0,4.0106473E0,6.139559E0,0E0,0E0,3.084056E0,0E0,0E0],"parents":[2147483647,0,0,2,2,3,3,6,6],"right_children":[2,-1,4,6,-1,-1,8,-1,-1],"split_conditions":[3.797399E0,-8.533868E-2,2.2949493E1,1.6984192E1,-6.667679E-2,-7.386414E-2,7.513297E1,9.41032E-2,-5.1630784E-2],"split_indices":[1,0,0,0,0,0,3,0,0],"split_type":[0,0,0,0,0,0,0,0,0],"sum_hessian":[2.2148804E1,5.5850077E0,1.6563797E1,1.2938903E1,3.6248941E0,2.747757E0,1.0191146E1,9.147446E0,1.0436997E0],"tree_param":{"num_deleted":"0","num_feature":"4","num_nodes":"9","size_leaf_vector":"1"}},{"base_weights":[-1.3295716E-1,-8.417105E-2,1.4044718E-1,3.7311786E-1,-7.396746E-2,-7.2366856E-2,6.916218E-1,8.67023E-1,-5.137703E-2,9.384911E-2,1.40716275E-2],"categories":[],"categories_nodes":[],"categories_segments":[],"categories_sizes":[],"default_left":[0,0,0,0,0,0,0,0,0,0,0],"id":32,"left_children":[1,-1,3,5,-1,-1,7,9,-1,-1,-1],"loss_changes":[4.288126E0,0E0,3.631462E0,5.259963E0,0E0,0E0,2.7858863E0,3.88865E-1,0E0,0E0,0E0],"parents":[2147483647,0,0,2,2,3,3,6,6,7,7],"right_children":[2,-1,4,6,-1,-1,8,10,-1,-1,-1],"split_conditions":[3.797399E0,-8.417105E-2,2.302466E1,1.6984192E1,-7.396746E-2,-7.2366856E-2,7.513297E1,9.246418E-1,-5.137703E-2,9.384911E-2,1.40716275E-2],"split_indices":[1,0,0,0,0,0,3,2,0,0,0],"split_type":[0,0,0,0,0,0,0,0,0,0,0],"sum_hessian":[2.0519203E1,5.133324E0,1.53858795E1,1.2624503E1,2.7613766E0,2.5548036E0,1.0069699E1,9.035606E0,1.0340929E0,7.9601884E0,1.0754182E0],"tree_param":{"num_deleted":"0","num_feature":"4","num_nodes":"11","size_leaf_vector":"1"}},{"base_weights":[-1.3733123E-1,-8.295832E-2,1.3048972E-1,3.6063212E-1,-7.258588E-2,6.127819E-1,-5.3415275E-1,-6.2680006E-2,9.183677E-2,-7.024695E-2,-1.1586426E-2],"categories":[],"categories_nodes":[],"categories_segments":[],"categories_sizes":[],"default_left":[0,0,0,0,0,0,0,0,0,0,0],"id":33,"left_children":[1,-1,3,5,-1,7,9,-1,-1,-1,-1],"loss_changes":[3.821655E0,0E0,3.2782965E0,3.1998858E0,0E0,4.514591E0,1.5329272E-1,0E0,0E0,0E0,0E0],"parents":[2147483647,0,0,2,2,3,3,5,5,6,6],"right_children":[2,-1,4,6,-1,8,10,-1,-1,-1,-1],"split_conditions":[3.797399E0,-8.295832E-2,7.513297E1,2.2949493E1,-7.258588E-2,1.6984192E1,5.515373E1,-6.2680006E-2,9.183677E-2,-7.024695E-2,-1.1586426E-2],"split_indices":[1,0,3,0,0,0,3,0,0,0,0],"split_type":[0,0,0,0,0,0,0,0,0,0,0],"sum_hessian":[1.9029188E1,4.723238E0,1.4305949E1,1.1731893E1,2.5740564E0,9.398551E0,2.3333423E0,1.6508561E0,7.7476945E0,1.1793779E0,1.1539644E0],"tree_param":{"num_deleted":"0","num_feature":"4","num_nodes":"11","size_leaf_vector":"1"}},{"base_weights":[-1.435771E-1,-8.170205E-2,1.1795923E-1,3.4835973E-1,-7.137025E-2,-6.944997E-2,6.608648E-1,8.3278614E-1,-3.8714565E-2,9.13185E-2,1.1075388E-2],"categories":[],"categories_nodes":[],"categories_segments":[],"categories_sizes":[],"default_left":[0,0,0,0,0,0,0,0,0,0,0],"id":34,"left_children":[1,-1,3,5,-1,-1,7,9,-1,-1,-1],"loss_changes":[3.386111E0,0E0,2.9939113E0,4.3342338E0,0E0,0E0,2.0632114E0,3.9910984E-1,0E0,0E0,0E0],"parents":[2147483647,0,0,2,2,3,3,6,6,7,7],"right_children":[2,-1,4,6,-1,-1,8,10,-1,-1,-1],"split_conditions":[3.797399E0,-8.170205E-2,2.302466E1,1.6984192E1,-7.137025E-2,-6.944997E-2,7.362207E1,9.246418E-1,-3.8714565E-2,9.13185E-2,1.1075388E-2],"split_indices":[1,0,0,0,0,0,3,2,0,0,0],"split_type":[0,0,0,0,0,0,0,0,0,0,0],"sum_hessian":[1.767789E1,4.350817E0,1.3327073E1,1.0890999E1,2.436074E0,2.2292879E0,8.661711E0,7.617465E0,1.0442461E0,6.6160235E0,1.0014416E0],"tree_param":{"num_deleted":"0","num_feature":"4","num_nodes":"11","size_leaf_vector":"1"}},{"base_weights":[-1.474097E-1,-8.0404386E-2,1.08329386E-1,3.6648425E-1,-6.119218E-2,-6.7927375E-2,7.0475763E-1,8.904274E-2,-2.7373975E-2],"categories":[],"categories_nodes":[],"categories_segments":[],"categories_sizes":[],"default_left":[0,0,0,0,0,0,0,0,0],"id":35,"left_children":[1,-1,3,5,-1,-1,7,-1,-1],"loss_changes":[3.0189285E0,0E0,2.7244425E0,4.201608E0,0E0,0E0,1.777575E0,0E0,0E0],"parents":[2147483647,0,0,2,2,3,3,6,6],"right_children":[2,-1,4,6,-1,-1,8,-1,-1],"split_conditions":[3.797399E0,-8.0404386E-2,2.2949493E1,1.6984192E1,-6.119218E-2,-6.7927375E-2,7.33385E1,8.904274E-2,-2.7373975E-2],"split_indices":[1,0,0,0,0,0,3,0,0],"split_type":[0,0,0,0,0,0,0,0,0],"sum_hessian":[1.6458935E1,4.0124903E0,1.2446445E1,9.523994E0,2.9224505E0,2.081393E0,7.4426017E0,6.3312526E0,1.1113489E0],"tree_param":{"num_deleted":"0","num_feature":"4","num_nodes":"9","size_leaf_vector":"1"}},{"base_weights":[-1.5042077E-1,-7.906794E-2,9.932783E-2,3.2587156E-1,-6.873876E-2,5.809381E-1,-4.8420998E-1,-5.783689E-2,8.8385426E-2,-6.601775E-2,-7.4959807E-3],"categories":[],"categories_nodes":[],"categories_segments":[],"categories_sizes":[],"default_left":[0,0,0,0,0,0,0,0,0,0,0],"id":36,"left_children":[1,-1,3,5,-1,7,9,-1,-1,-1,-1],"loss_changes":[2.6960266E0,0E0,2.4810727E0,2.453148E0,0E0,3.4781272E0,1.710549E-1,0E0,0E0,0E0,0E0],"parents":[2147483647,0,0,2,2,3,3,5,5,6,6],"right_children":[2,-1,4,6,-1,8,10,-1,-1,-1,-1],"split_conditions":[3.797399E0,-7.906794E-2,7.513297E1,2.2949493E1,-6.873876E-2,1.6984192E1,5.515373E1,-5.783689E-2,8.8385426E-2,-6.601775E-2,-7.4959807E-3],"split_indices":[1,0,3,0,0,0,3,0,0,0,0],"split_type":[0,0,0,0,0,0,0,0,0,0,0],"sum_hessian":[1.5369164E1,3.705022E0,1.1664143E1,9.511095E0,2.1530468E0,7.448642E0,2.0624537E0,1.3546915E0,6.0939503E0,1.0135243E0,1.0489296E0],"tree_param":{"num_deleted":"0","num_feature":"4","num_nodes":"11","size_leaf_vector":"1"}},{"base_weights":[-1.568317E-1,-7.769585E-2,8.679803E-2,3.1228048E-1,-6.745358E-2,-6.5007515E-2,6.124412E-1,7.830592E-1,-2.6702378E-2,8.7370455E-2,1.2543976E-2],"categories":[],"categories_nodes":[],"categories_segments":[],"categories_sizes":[],"default_left":[0,0,0,0,0,0,0,0,0,0,0],"id":37,"left_children":[1,-1,3,5,-1,-1,7,9,-1,-1,-1],"loss_changes":[2.3840683E0,0E0,2.2548919E0,3.2494175E0,0E0,0E0,1.4153562E0,3.0690145E-1,0E0,0E0,0E0],"parents":[2147483647,0,0,2,2,3,3,6,6,7,7],"right_children":[2,-1,4,6,-1,-1,8,10,-1,-1,-1],"split_conditions":[3.797399E0,-7.769585E-2,2.302466E1,1.6984192E1,-6.745358E-2,-6.5007515E-2,7.33385E1,9.1181856E-1,-2.6702378E-2,8.7370455E-2,1.2543976E-2],"split_indices":[1,0,0,0,0,0,3,2,0,0,0],"split_type":[0,0,0,0,0,0,0,0,0,0,0],"sum_hessian":[1.4333662E1,3.4254763E0,1.0908186E1,8.870774E0,2.037412E0,1.8318521E0,7.038922E0,5.987042E0,1.0518798E0,4.9729857E0,1.0140564E0],"tree_param":{"num_deleted":"0","num_feature":"4","num_nodes":"11","size_leaf_vector":"1"}},{"base_weights":[-1.5961525E-1,-7.629165E-2,7.814955E-2,3.0028433E-1,-6.60749E-2,5.5962896E-1,-4.6643157E-2,-5.479219E-2,8.605803E-2],"categories":[],"categories_nodes":[],"categories_segments":[],"categories_sizes":[],"default_left":[0,0,0,0,0,0,0,0,0],"id":38,"left_children":[1,-1,3,5,-1,7,-1,-1,-1],"loss_changes":[2.129004E0,0E0,2.045792E0,2.1184723E0,0E0,2.9496715E0,0E0,0E0,0E0],"parents":[2147483647,0,0,2,2,3,3,5,5],"right_children":[2,-1,4,6,-1,8,-1,-1,-1],"split_conditions":[3.797399E0,-7.629165E-2,7.513297E1,2.2949493E1,-6.60749E-2,1.6984192E1,-4.6643157E-2,-5.479219E-2,8.605803E-2],"split_indices":[1,0,3,0,0,0,0,0,0],"split_type":[0,0,0,0,0,0,0,0,0],"sum_hessian":[1.3426432E1,3.171191E0,1.025524E1,8.341227E0,1.9140145E0,6.434745E0,1.9064814E0,1.199554E0,5.235191E0],"tree_param":{"num_deleted":"0","num_feature":"4","num_nodes":"9","size_leaf_vector":"1"}},{"base_weights":[-1.644357E-1,-7.4859284E-2,6.797566E-2,2.884731E-1,-6.471711E-2,-6.212283E-2,5.8042824E-1,7.475569E-1,-2.1534903E-2,8.4260166E-2,1.5848137E-2],"categories":[],"categories_nodes":[],"categories_segments":[],"categories_sizes":[],"default_left":[0,0,0,0,0,0,0,0,0,0,0],"id":39,"left_children":[1,-1,3,5,-1,-1,7,9,-1,-1,-1],"loss_changes":[1.8904593E0,0E0,1.8597536E0,2.6981213E0,0E0,0E0,1.1158888E0,2.1120358E-1,0E0,0E0,0E0],"parents":[2147483647,0,0,2,2,3,3,6,6,7,7],"right_children":[2,-1,4,6,-1,-1,8,10,-1,-1,-1],"split_conditions":[3.797399E0,-7.4859284E-2,2.302466E1,1.6984192E1,-6.471711E-2,-6.212283E-2,7.2815895E1,8.903843E-1,-2.1534903E-2,8.4260166E-2,1.5848137E-2],"split_indices":[1,0,0,0,0,0,3,2,0,0,0],"split_type":[0,0,0,0,0,0,0,0,0,0,0],"sum_hessian":[1.254971E1,2.9397578E0,9.609952E0,7.8012557E0,1.8086963E0,1.6213814E0,6.1798744E0,5.15733E0,1.0225444E0,4.0702357E0,1.0870941E0],"tree_param":{"num_deleted":"0","num_feature":"4","num_nodes":"11","size_leaf_vector":"1"}},{"base_weights":[-1.6636178E-1,-7.340295E-2,6.025154E-2,2.7851784E-1,-6.347844E-2,5.38839E-1,-4.432353E-2,-5.1866706E-2,8.3698444E-2],"categories":[],"categories_nodes":[],"categories_segments":[],"categories_sizes":[],"default_left":[0,0,0,0,0,0,0,0,0],"id":40,"left_children":[1,-1,3,5,-1,7,-1,-1,-1],"loss_changes":[1.6913817E0,0E0,1.7052479E0,1.8100374E0,0E0,2.5141306E0,0E0,0E0,0E0],"parents":[2147483647,0,0,2,2,3,3,5,5],"right_children":[2,-1,4,6,-1,8,-1,-1,-1],"split_conditions":[3.797399E0,-7.340295E-2,7.513297E1,2.2949493E1,-6.347844E-2,1.6984192E1,-4.432353E-2,-5.1866706E-2,8.3698444E-2],"split_indices":[1,0,3,0,0,0,0,0,0],"split_type":[0,0,0,0,0,0,0,0,0],"sum_hessian":[1.1804274E1,2.7289956E0,9.075277E0,7.362472E0,1.7128056E0,5.597134E0,1.7653378E0,1.0682969E0,4.528837E0],"tree_param":{"num_deleted":"0","num_feature":"4","num_nodes":"9","size_leaf_vector":"1"}},{"base_weights":[-1.7112118E-1,-7.192709E-2,5.03304E-2,2.654192E-1,-6.20156E-2,-5.9298273E-2,5.4850286E-1,7.1015584E-1,-1.6218318E-2,8.1381336E-2,1.2830773E-2],"categories":[],"categories_nodes":[],"categories_segments":[],"categories_sizes":[],"default_left":[0,0,0,0,0,0,0,0,0,0,0],"id":41,"left_children":[1,-1,3,5,-1,-1,7,9,-1,-1,-1],"loss_changes":[1.5006905E0,0E0,1.5386068E0,2.2482958E0,0E0,0E0,8.5855556E-1,2.2474003E-1,0E0,0E0,0E0],"parents":[2147483647,0,0,2,2,3,3,6,6,7,7],"right_children":[2,-1,4,6,-1,-1,8,10,-1,-1,-1],"split_conditions":[3.797399E0,-7.192709E-2,2.302466E1,1.6984192E1,-6.20156E-2,-5.9298273E-2,7.2118065E1,8.903843E-1,-1.6218318E-2,8.1381336E-2,1.2830773E-2],"split_indices":[1,0,0,0,0,0,3,2,0,0,0],"split_type":[0,0,0,0,0,0,0,0,0,0,0],"sum_hessian":[1.1064468E1,2.5369298E0,8.527538E0,6.9137726E0,1.6137656E0,1.4430993E0,5.4706736E0,4.457512E0,1.0131618E0,3.4450912E0,1.0124205E0],"tree_param":{"num_deleted":"0","num_feature":"4","num_nodes":"11","size_leaf_vector":"1"}},{"base_weights":[-1.725181E-1,4.310235E-2,-7.050074E-2,-6.0908496E-2,2.576894E-1,5.183802E-1,-4.216307E-2,-4.217357E-2,8.089739E-2],"categories":[],"categories_nodes":[],"categories_segments":[],"categories_sizes":[],"default_left":[0,0,0,0,0,0,0,0,0],"id":42,"left_children":[1,3,-1,-1,5,7,-1,-1,-1],"loss_changes":[1.3447332E0,1.4291713E0,0E0,0E0,1.5543089E0,1.9528381E0,0E0,0E0,0E0],"parents":[2147483647,0,0,1,1,4,4,5,5],"right_children":[2,4,-1,-1,6,8,-1,-1,-1],"split_conditions":[7.513297E1,3.797399E0,-7.050074E-2,-6.0908496E-2,2.2949493E1,1.7119453E1,-4.216307E-2,-4.217357E-2,8.089739E-2],"split_indices":[3,1,0,0,0,0,0,0,0],"split_type":[0,0,0,0,0,0,0,0,0],"sum_hessian":[1.0447451E1,8.090447E0,2.3570032E0,1.547816E0,6.5426316E0,4.8993907E0,1.6432407E0,1.0502803E0,3.8491104E0],"tree_param":{"num_deleted":"0","num_feature":"4","num_nodes":"9","size_leaf_vector":"1"}},{"base_weights":[-1.7625059E-1,3.5989035E-2,-6.911559E-2,-6.786362E-2,3.6860386E-1,5.486101E-1,-2.9989798E-2,6.3128245E-1,9.461077E-3,1.3228451E-2,7.378529E-2],"categories":[],"categories_nodes":[],"categories_segments":[],"categories_sizes":[],"default_left":[0,0,0,0,0,0,0,0,0,0,0],"id":43,"left_children":[1,3,-1,-1,5,7,-1,9,-1,-1,-1],"loss_changes":[1.2094004E0,2.3004665E0,0E0,0E0,9.5081735E-1,1.4676082E-1,0E0,1.4050937E-1,0E0,0E0,0E0],"parents":[2147483647,0,0,1,1,4,4,5,5,7,7],"right_children":[2,4,-1,-1,6,8,-1,10,-1,-1,-1],"split_conditions":[2.302466E1,1.6984192E1,-6.911559E-2,-6.786362E-2,7.33385E1,8.903843E-1,-2.9989798E-2,4.0903063E0,9.461077E-3,1.3228451E-2,7.378529E-2],"split_indices":[0,0,0,0,3,2,0,1,0,0,0],"split_type":[0,0,0,0,0,0,0,0,0,0,0],"sum_hessian":[9.839044E0,7.625841E0,2.2132022E0,2.0916374E0,5.5342035E0,4.50145E0,1.0327535E0,3.4776802E0,1.0237701E0,1.0064476E0,2.4712327E0],"tree_param":{"num_deleted":"0","num_feature":"4","num_nodes":"11","size_leaf_vector":"1"}},{"base_weights":[-1.7306146E-1,-6.8023935E-2,3.9162125E-2,2.4631563E-1,-5.800439E-2,5.033044E-1,-3.9338555E-2,-3.4468215E-2,7.823957E-2],"categories":[],"categories_nodes":[],"categories_segments":[],"categories_sizes":[],"default_left":[0,0,0,0,0,0,0,0,0],"id":44,"left_children":[1,-1,3,5,-1,7,-1,-1,-1],"loss_changes":[1.1422313E0,0E0,1.2014385E0,1.3299803E0,0E0,1.5360783E0,0E0,0E0,0E0],"parents":[2147483647,0,0,2,2,3,3,5,5],"right_children":[2,-1,4,6,-1,8,-1,-1,-1],"split_conditions":[3.797399E0,-6.8023935E-2,7.513297E1,2.2949493E1,-5.800439E-2,1.7189823E1,-3.9338555E-2,-3.4468215E-2,7.823957E-2],"split_indices":[1,0,3,0,0,0,0,0,0],"split_type":[0,0,0,0,0,0,0,0,0],"sum_hessian":[9.364572E0,2.1119878E0,7.2525835E0,5.885736E0,1.3668478E0,4.351012E0,1.5347239E0,1.0192184E0,3.3317935E0],"tree_param":{"num_deleted":"0","num_feature":"4","num_nodes":"9","size_leaf_vector":"1"}},{"base_weights":[-1.7596504E-1,-6.6516E-2,3.092098E-2,2.335629E-1,-5.6575097E-2,4.871193E-1,-3.738894E-2,-3.1343278E-2,7.65839E-2],"categories":[],"categories_nodes":[],"categories_segments":[],"categories_sizes":[],"default_left":[0,0,0,0,0,0,0,0,0],"id":45,"left_children":[1,-1,3,5,-1,7,-1,-1,-1],"loss_changes":[1.0180433E0,0E0,1.085162E0,1.197387E0,0E0,1.3745841E0,0E0,0E0,0E0],"parents":[2147483647,0,0,2,2,3,3,5,5],"right_children":[2,-1,4,6,-1,8,-1,-1,-1],"split_conditions":[3.797399E0,-6.6516E-2,7.513297E1,2.2949493E1,-5.6575097E-2,1.7285397E1,-3.738894E-2,-3.1343278E-2,7.65839E-2],"split_indices":[1,0,3,0,0,0,0,0,0],"split_type":[0,0,0,0,0,0,0,0,0],"sum_hessian":[8.855743E0,1.9737009E0,6.882042E0,5.5915837E0,1.2904583E0,4.0846896E0,1.506894E0,1.0226994E0,3.0619905E0],"tree_param":{"num_deleted":"0","num_feature":"4","num_nodes":"9","size_leaf_vector":"1"}},{"base_weights":[-1.7825265E-1,2.5752105E-2,-6.526402E-2,-6.406145E-2,3.415706E-1,5.0492E-1,-2.089898E-2,5.9835922E-2,7.846173E-3],"categories":[],"categories_nodes":[],"categories_segments":[],"categories_sizes":[],"default_left":[0,0,0,0,0,0,0,0,0],"id":46,"left_children":[1,3,-1,-1,5,7,-1,-1,-1],"loss_changes":[9.2600465E-1,1.8038496E0,0E0,0E0,6.237287E-1,1.4178741E-1,0E0,0E0,0E0],"parents":[2147483647,0,0,1,1,4,4,5,5],"right_children":[2,4,-1,-1,6,8,-1,-1,-1],"split_conditions":[2.302466E1,1.6984192E1,-6.526402E-2,-6.406145E-2,7.177061E1,8.230036E-1,-2.089898E-2,5.9835922E-2,7.846173E-3],"split_indices":[0,0,0,0,3,2,0,0,0],"split_type":[0,0,0,0,0,0,0,0,0],"sum_hessian":[8.394741E0,6.531613E0,1.8631281E0,1.7695323E0,4.7620807E0,3.7364008E0,1.0256797E0,2.7342277E0,1.0021731E0],"tree_param":{"num_deleted":"0","num_feature":"4","num_nodes":"9","size_leaf_vector":"1"}},{"base_weights":[-1.7618214E-1,-6.420032E-2,2.658401E-2,2.2370018E-1,-5.404554E-2,4.7306153E-1,-3.520599E-2,-2.2741733E-2,7.358762E-2],"categories":[],"categories_nodes":[],"categories_segments":[],"categories_sizes":[],"default_left":[0,0,0,0,0,0,0,0,0],"id":47,"left_children":[1,-1,3,5,-1,7,-1,-1,-1],"loss_changes":[8.715801E-1,0E0,9.327604E-1,1.0419233E0,0E0,1.0291369E0,0E0,0E0,0E0],"parents":[2147483647,0,0,2,2,3,3,5,5],"right_children":[2,-1,4,6,-1,8,-1,-1,-1],"split_conditions":[3.797399E0,-6.420032E-2,7.513297E1,2.2949493E1,-5.404554E-2,1.751166E1,-3.520599E-2,-2.2741733E-2,7.358762E-2],"split_indices":[1,0,3,0,0,0,0,0,0],"split_type":[0,0,0,0,0,0,0,0,0],"sum_hessian":[8.046991E0,1.7834928E0,6.263499E0,5.0971165E0,1.1663823E0,3.681173E0,1.4159435E0,1.0410779E0,2.640095E0],"tree_param":{"num_deleted":"0","num_feature":"4","num_nodes":"9","size_leaf_vector":"1"}},{"base_weights":[-1.7734112E-1,-6.2704645E-2,2.0034522E-2,2.133288E-1,-5.2780934E-2,-5.054262E-2,4.675297E-1,5.830711E-1,1.6226029E-3,6.9366984E-2,1.3492859E-2],"categories":[],"categories_nodes":[],"categories_segments":[],"categories_sizes":[],"default_left":[0,0,0,0,0,0,0,0,0,0,0],"id":48,"left_children":[1,-1,3,5,-1,-1,7,9,-1,-1,-1],"loss_changes":[7.813843E-1,0E0,8.52668E-1,1.3102915E0,0E0,0E0,2.4405801E-1,9.68411E-2,0E0,0E0,0E0],"parents":[2147483647,0,0,2,2,3,3,6,6,7,7],"right_children":[2,-1,4,6,-1,-1,8,10,-1,-1,-1],"split_conditions":[3.797399E0,-6.2704645E-2,2.302466E1,1.6984192E1,-5.2780934E-2,-5.054262E-2,6.833313E1,7.3958117E-1,1.6226029E-3,6.9366984E-2,1.3492859E-2],"split_indices":[1,0,0,0,0,0,3,2,0,0,0],"split_type":[0,0,0,0,0,0,0,0,0,0,0],"sum_hessian":[7.66172E0,1.6729995E0,5.98872E0,4.878171E0,1.1105491E0,1.0162952E0,3.861876E0,2.842243E0,1.0196328E0,1.8402123E0,1.0020306E0],"tree_param":{"num_deleted":"0","num_feature":"4","num_nodes":"11","size_leaf_vector":"1"}},{"base_weights":[-1.759195E-1,2.0418225E-2,-6.170372E-2,2.113841E-1,-5.1580053E-2,-5.1520515E-2,4.8934242E-1,1.0388365E-2,6.015852E-2],"categories":[],"categories_nodes":[],"categories_segments":[],"categories_sizes":[],"default_left":[0,0,0,0,0,0,0,0,0],"id":49,"left_children":[1,3,-1,5,-1,-1,7,-1,-1],"loss_changes":[7.3437476E-1,7.986878E-1,0E0,1.3983648E0,0E0,0E0,1.3730419E-1,0E0,0E0],"parents":[2147483647,0,0,1,1,3,3,6,6],"right_children":[2,4,-1,6,-1,-1,8,-1,-1],"split_conditions":[7.513297E1,2.302466E1,-6.170372E-2,1.6984192E1,-5.1580053E-2,-5.1520515E-2,4.6489616E1,1.0388365E-2,6.015852E-2],"split_indices":[3,0,0,0,0,0,3,0,0],"split_type":[0,0,0,0,0,0,0,0,0],"sum_hessian":[7.3338213E0,5.7349544E0,1.5988668E0,4.6756005E0,1.059354E0,1.0575659E0,3.6180344E0,1.2501963E0,2.3678381E0],"tree_param":{"num_deleted":"0","num_feature":"4","num_nodes":"9","size_leaf_vector":"1"}},{"base_weights":[-1.764504E-1,-6.046137E-2,1.6724942E-2,2.4432318E-1,-4.176665E-2,-4.129451E-2,5.213127E-1,6.6066325E-2,6.12185E-3],"categories":[],"categories_nodes":[],"categories_segments":[],"categories_sizes":[],"default_left":[0,0,0,0,0,0,0,0,0],"id":50,"left_children":[1,-1,3,5,-1,-1,7,-1,-1],"loss_changes":[6.740572E-1,0E0,7.45144E-1,1.1072133E0,0E0,0E0,2.0887804E-1,0E0,0E0],"parents":[2147483647,0,0,2,2,3,3,6,6],"right_children":[2,-1,4,6,-1,-1,8,-1,-1],"split_conditions":[3.797399E0,-6.046137E-2,2.2949493E1,1.7119453E1,-4.176665E-2,-4.129451E-2,6.6911766E1,6.6066325E-2,6.12185E-3],"split_indices":[1,0,0,0,0,0,3,0,0],"split_type":[0,0,0,0,0,0,0,0,0],"sum_hessian":[7.0273304E0,1.5226299E0,5.5047007E0,3.8992498E0,1.6054507E0,1.0105302E0,2.8887196E0,1.8825989E0,1.0061206E0],"tree_param":{"num_deleted":"0","num_feature":"4","num_nodes":"9","size_leaf_vector":"1"}},{"base_weights":[-1.7364869E-1,1.7845366E-2,-5.9425216E-2,2.3699817E-1,-3.945526E-2,-4.24869E-2,5.447513E-1,1.6008334E-2,6.313153E-2],"categories":[],"categories_nodes":[],"categories_segments":[],"categories_sizes":[],"default_left":[0,0,0,0,0,0,0,0,0],"id":51,"left_children":[1,3,-1,5,-1,-1,7,-1,-1],"loss_changes":[6.350593E-1,6.627429E-1,0E0,1.1964414E0,0E0,0E0,2.1209836E-2,0E0,0E0],"parents":[2147483647,0,0,1,1,3,3,6,6],"right_children":[2,4,-1,6,-1,-1,8,-1,-1],"split_conditions":[7.513297E1,2.2949493E1,-5.9425216E-2,1.7119453E1,-3.945526E-2,-4.24869E-2,4.3874073E0,1.6008334E-2,6.313153E-2],"split_indices":[3,0,0,0,0,0,1,0,0],"split_type":[0,0,0,0,0,0,0,0,0],"sum_hessian":[6.753053E0,5.298364E0,1.4546888E0,3.7375212E0,1.560843E0,1.0654871E0,2.672034E0,1.0142553E0,1.6577789E0],"tree_param":{"num_deleted":"0","num_feature":"4","num_nodes":"9","size_leaf_vector":"1"}},{"base_weights":[-1.6995446E-1,-5.8208194E-2,1.8852E-2,2.0643547E-1,-4.635619E-2,4.4016227E-1,-2.907605E-2,-8.545036E-3,6.5657936E-2],"categories":[],"categories_nodes":[],"categories_segments":[],"categories_sizes":[],"default_left":[0,0,0,0,0,0,0,0,0],"id":52,"left_children":[1,-1,3,5,-1,7,-1,-1,-1],"loss_changes":[5.9452826E-1,0E0,6.4877754E-1,7.197811E-1,0E0,4.9540585E-1,0E0,0E0,0E0],"parents":[2147483647,0,0,2,2,3,3,5,5],"right_children":[2,-1,4,6,-1,8,-1,-1,-1],"split_conditions":[3.797399E0,-5.8208194E-2,7.38783E1,2.2949493E1,-4.635619E-2,1.7980055E1,-2.907605E-2,-8.545036E-3,6.5657936E-2],"split_indices":[1,0,3,0,0,0,0,0,0],"split_type":[0,0,0,0,0,0,0,0,0],"sum_hessian":[6.499516E0,1.3876319E0,5.111884E0,4.0925865E0,1.0192974E0,2.861932E0,1.2306547E0,1.0111964E0,1.8507355E0],"tree_param":{"num_deleted":"0","num_feature":"4","num_nodes":"9","size_leaf_vector":"1"}},{"base_weights":[-1.6873279E-1,-5.6782138E-2,1.4818058E-2,2.2418621E-1,-3.607218E-2,-3.1570386E-2,4.8002082E-1,5.8785733E-2,1.1272932E-2],"categories":[],"categories_nodes":[],"categories_segments":[],"categories_sizes":[],"default_left":[0,0,0,0,0,0,0,0,0],"id":53,"left_children":[1,-1,3,5,-1,-1,7,-1,-1],"loss_changes":[5.3949225E-1,0E0,5.479485E-1,7.6354074E-1,0E0,0E0,6.851572E-2,0E0,0E0],"parents":[2147483647,0,0,2,2,3,3,6,6],"right_children":[2,-1,4,6,-1,-1,8,-1,-1],"split_conditions":[3.797399E0,-5.6782138E-2,2.2949493E1,1.736619E1,-3.607218E-2,-3.1570386E-2,6.389492E1,5.8785733E-2,1.1272932E-2],"split_indices":[1,0,0,0,0,0,3,0,0],"split_type":[0,0,0,0,0,0,0,0,0],"sum_hessian":[6.2499137E0,1.3093972E0,4.9405165E0,3.4308207E0,1.5096958E0,1.0278095E0,2.403011E0,1.3933924E0,1.0096188E0],"tree_param":{"num_deleted":"0","num_feature":"4","num_nodes":"9","size_leaf_vector":"1"}},{"base_weights":[-1.6390115E-1,2.0228904E-2,-5.6079637E-2,2.2155783E-1,-3.3916205E-2,-3.4666028E-2,5.0867733E-2],"categories":[],"categories_nodes":[],"categories_segments":[],"categories_sizes":[],"default_left":[0,0,0,0,0,0,0],"id":54,"left_children":[1,3,-1,5,-1,-1,-1],"loss_changes":[5.26716E-1,4.9353802E-1,0E0,8.7968016E-1,0E0,0E0,0E0],"parents":[2147483647,0,0,1,1,3,3],"right_children":[2,4,-1,6,-1,-1,-1],"split_conditions":[7.513297E1,2.2949493E1,-5.6079637E-2,1.7189823E1,-3.3916205E-2,-3.4666028E-2,5.0867733E-2],"split_indices":[3,0,0,0,0,0,0],"split_type":[0,0,0,0,0,0,0],"sum_hessian":[6.0521255E0,4.7824526E0,1.2696726E0,3.3111067E0,1.4713459E0,1.0418606E0,2.269246E0],"tree_param":{"num_deleted":"0","num_feature":"4","num_nodes":"7","size_leaf_vector":"1"}},{"base_weights":[-1.6256312E-1,-5.4917365E-2,1.795235E-2,2.1424536E-1,-3.2408755E-2,-2.7465446E-2,4.5563844E-1,5.4043956E-2,1.4045951E-2],"categories":[],"categories_nodes":[],"categories_segments":[],"categories_sizes":[],"default_left":[0,0,0,0,0,0,0,0,0],"id":55,"left_children":[1,-1,3,5,-1,-1,7,-1,-1],"loss_changes":[4.8844358E-1,0E0,4.483165E-1,6.193407E-1,0E0,0E0,9.068847E-3,0E0,0E0],"parents":[2147483647,0,0,2,2,3,3,6,6],"right_children":[2,-1,4,6,-1,-1,8,-1,-1],"split_conditions":[3.797399E0,-5.4917365E-2,2.2949493E1,1.744334E1,-3.2408755E-2,-2.7465446E-2,6.264622E1,5.4043956E-2,1.4045951E-2],"split_indices":[1,0,0,0,0,0,3,0,0],"split_type":[0,0,0,0,0,0,0,0,0],"sum_hessian":[5.857577E0,1.2144129E0,4.643164E0,3.1875107E0,1.4556534E0,1.0080636E0,2.1794472E0,1.1541955E0,1.0252516E0],"tree_param":{"num_deleted":"0","num_feature":"4","num_nodes":"9","size_leaf_vector":"1"}},{"base_weights":[-1.5697895E-1,2.2617605E-2,-5.4103773E-2,2.1029347E-1,-3.0418947E-2,-3.0692099E-2,4.819135E-2],"categories":[],"categories_nodes":[],"categories_segments":[],"categories_sizes":[],"default_left":[0,0,0,0,0,0,0],"id":56,"left_children":[1,3,-1,5,-1,-1,-1],"loss_changes":[4.73912E-1,4.0256247E-1,0E0,7.236141E-1,0E0,0E0,0E0],"parents":[2147483647,0,0,1,1,3,3],"right_children":[2,4,-1,6,-1,-1,-1],"split_conditions":[7.513297E1,2.2949493E1,-5.4103773E-2,1.7285397E1,-3.0418947E-2,-3.0692099E-2,4.819135E-2],"split_indices":[3,0,0,0,0,0,0],"split_type":[0,0,0,0,0,0,0],"sum_hessian":[5.6933055E0,4.520502E0,1.1728034E0,3.0979564E0,1.4225458E0,1.0219712E0,2.0759852E0],"tree_param":{"num_deleted":"0","num_feature":"4","num_nodes":"7","size_leaf_vector":"1"}},{"base_weights":[-1.5523951E-1,-5.3154092E-2,2.218057E-2,2.0570786E-1,-2.9059296E-2,-2.2607861E-2,4.2906586E-2],"categories":[],"categories_nodes":[],"categories_segments":[],"categories_sizes":[],"default_left":[0,0,0,0,0,0,0],"id":57,"left_children":[1,-1,3,5,-1,-1,-1],"loss_changes":[4.4757116E-1,0E0,3.6950773E-1,4.8142248E-1,0E0,0E0,0E0],"parents":[2147483647,0,0,2,2,3,3],"right_children":[2,-1,4,6,-1,-1,-1],"split_conditions":[3.797399E0,-5.3154092E-2,2.2949493E1,1.751166E1,-2.9059296E-2,-2.2607861E-2,4.2906586E-2],"split_indices":[1,0,0,0,0,0,0],"split_type":[0,0,0,0,0,0,0],"sum_hessian":[5.527246E0,1.1314778E0,4.395768E0,2.9859824E0,1.4097855E0,1.0138565E0,1.972126E0],"tree_param":{"num_deleted":"0","num_feature":"4","num_nodes":"7","size_leaf_vector":"1"}},{"base_weights":[-1.525479E-1,2.3933746E-2,-5.2474357E-2,-3.1734057E-2,1.7943804E-1,3.6936554E-1,-1.8562743E-2,5.8048405E-4,5.374491E-2],"categories":[],"categories_nodes":[],"categories_segments":[],"categories_sizes":[],"default_left":[0,0,0,0,0,0,0,0,0],"id":58,"left_children":[1,3,-1,-1,5,7,-1,-1,-1],"loss_changes":[4.3225777E-1,3.3771846E-1,0E0,0E0,3.648629E-1,1.8909255E-1,0E0,0E0,0E0],"parents":[2147483647,0,0,1,1,4,4,5,5],"right_children":[2,4,-1,-1,6,8,-1,-1,-1],"split_conditions":[7.513297E1,3.9539826E0,-5.2474357E-2,-3.1734057E-2,2.2949493E1,1.8779428E1,-1.8562743E-2,5.8048405E-4,5.374491E-2],"split_indices":[3,1,0,0,0,0,0,0,0],"split_type":[0,0,0,0,0,0,0,0,0],"sum_hessian":[5.389498E0,4.2907E0,1.0987983E0,1.0173265E0,3.2733738E0,2.1454246E0,1.127949E0,1.0053695E0,1.1400551E0],"tree_param":{"num_deleted":"0","num_feature":"4","num_nodes":"9","size_leaf_vector":"1"}},{"base_weights":[-1.4818074E-1,2.289801E-2,-5.1160943E-2,1.9242702E-1,-2.6176175E-2,-2.6104838E-2,4.4872817E-2],"categories":[],"categories_nodes":[],"categories_segments":[],"categories_sizes":[],"default_left":[0,0,0,0,0,0,0],"id":59,"left_children":[1,3,-1,5,-1,-1,-1],"loss_changes":[4.0023154E-1,3.0159673E-1,0E0,5.6334287E-1,0E0,0E0,0E0],"parents":[2147483647,0,0,1,1,3,3],"right_children":[2,4,-1,6,-1,-1,-1],"split_conditions":[7.513297E1,2.2949493E1,-5.1160943E-2,1.744334E1,-2.6176175E-2,-2.6104838E-2,4.4872817E-2],"split_indices":[3,0,0,0,0,0,0],"split_type":[0,0,0,0,0,0,0],"sum_hessian":[5.2487698E0,4.205899E0,1.042871E0,2.8390903E0,1.3668087E0,1.0185103E0,1.8205799E0],"tree_param":{"num_deleted":"0","num_feature":"4","num_nodes":"7","size_leaf_vector":"1"}},{"base_weights":[-1.459426E-1,-5.055482E-2,2.5269264E-2,1.7216513E-1,-2.8658656E-2,3.5369128E-2,-1.6425619E-2],"categories":[],"categories_nodes":[],"categories_segments":[],"categories_sizes":[],"default_left":[0,0,0,0,0,0,0],"id":60,"left_children":[1,-1,3,5,-1,-1,-1],"loss_changes":[3.8926315E-1,0E0,2.827434E-1,3.077621E-1,0E0,0E0,0E0],"parents":[2147483647,0,0,2,2,3,3],"right_children":[2,-1,4,6,-1,-1,-1],"split_conditions":[3.797399E0,-5.055482E-2,7.049947E1,2.2865765E1,-2.8658656E-2,3.5369128E-2,-1.6425619E-2],"split_indices":[1,0,3,0,0,0,0],"split_type":[0,0,0,0,0,0,0],"sum_hessian":[5.1149263E0,1.0199357E0,4.0949907E0,3.0882444E0,1.006746E0,1.9725577E0,1.1156868E0],"tree_param":{"num_deleted":"0","num_feature":"4","num_nodes":"7","size_leaf_vector":"1"}},{"base_weights":[-1.4385806E-1,2.0998783E-2,-4.747896E-2,-2.7002951E-2,1.6325264E-1,-1.4211284E-2,3.3327304E-2],"categories":[],"categories_nodes":[],"categories_segments":[],"categories_sizes":[],"default_left":[0,0,0,0,0,0,0],"id":61,"left_children":[1,3,-1,-1,5,-1,-1],"loss_changes":[3.377789E-1,2.49771E-1,0E0,0E0,2.5297755E-1,0E0,0E0],"parents":[2147483647,0,0,1,1,4,4],"right_children":[2,4,-1,-1,6,-1,-1],"split_conditions":[7.38783E1,4.0218205E0,-4.747896E-2,-2.7002951E-2,4.796632E1,-1.4211284E-2,3.3327304E-2],"split_indices":[3,1,0,0,3,0,0],"split_type":[0,0,0,0,0,0,0],"sum_hessian":[5.0086327E0,3.9683206E0,1.0403119E0,1.0079648E0,2.9603558E0,1.1174678E0,1.8428879E0],"tree_param":{"num_deleted":"0","num_feature":"4","num_nodes":"7","size_leaf_vector":"1"}},{"base_weights":[-1.4061192E-1,-4.6896543E-2,2.1939602E-2,2.8802544E-1,-3.2421473E-2,3.7485443E-2,4.5013325E-3],"categories":[],"categories_nodes":[],"categories_segments":[],"categories_sizes":[],"default_left":[0,0,0,0,0,0,0],"id":62,"left_children":[1,-1,3,5,-1,-1,-1],"loss_changes":[3.2697016E-1,0E0,5.469044E-1,5.3042293E-2,0E0,0E0,0E0],"parents":[2147483647,0,0,2,2,3,3],"right_children":[2,-1,4,6,-1,-1,-1],"split_conditions":[1.7065027E1,-4.6896543E-2,2.2949493E1,6.332397E1,-3.2421473E-2,3.7485443E-2,4.5013325E-3],"split_indices":[0,0,0,3,0,0,0],"split_type":[0,0,0,0,0,0,0],"sum_hessian":[4.933208E0,1.0093328E0,3.923875E0,2.3134634E0,1.6104116E0,1.3047415E0,1.008722E0],"tree_param":{"num_deleted":"0","num_feature":"4","num_nodes":"7","size_leaf_vector":"1"}},{"base_weights":[-1.3527595E-1,-4.4803184E-2,2.3646692E-2,1.7433976E-1,-2.1870222E-2,-1.5834829E-2,3.7127946E-2],"categories":[],"categories_nodes":[],"categories_segments":[],"categories_sizes":[],"default_left":[0,0,0,0,0,0,0],"id":63,"left_children":[1,-1,3,5,-1,-1,-1],"loss_changes":[3.005135E-1,0E0,2.1406491E-1,2.8987175E-1,0E0,0E0,0E0],"parents":[2147483647,0,0,2,2,3,3],"right_children":[2,-1,4,6,-1,-1,-1],"split_conditions":[3.8370607E0,-4.4803184E-2,2.2949493E1,1.7877289E1,-2.1870222E-2,-1.5834829E-2,3.7127946E-2],"split_indices":[1,0,0,0,0,0,0],"split_type":[0,0,0,0,0,0,0],"sum_hessian":[4.832914E0,1.0154166E0,3.817497E0,2.526894E0,1.290603E0,1.0124794E0,1.5144145E0],"tree_param":{"num_deleted":"0","num_feature":"4","num_nodes":"7","size_leaf_vector":"1"}},{"base_weights":[-1.3159755E-1,-4.2297486E-2,1.9258877E-2,1.6147363E-1,-2.0588627E-2,-1.4923997E-2,3.487192E-2],"categories":[],"categories_nodes":[],"categories_segments":[],"categories_sizes":[],"default_left":[0,0,0,0,0,0,0],"id":64,"left_children":[1,-1,3,5,-1,-1,-1],"loss_changes":[2.6065338E-1,0E0,1.8505946E-1,2.5371233E-1,0E0,0E0,0E0],"parents":[2147483647,0,0,2,2,3,3],"right_children":[2,-1,4,6,-1,-1,-1],"split_conditions":[3.85573E0,-4.2297486E-2,2.2949493E1,1.7877289E1,-2.0588627E-2,-1.4923997E-2,3.487192E-2],"split_indices":[1,0,0,0,0,0,0],"split_type":[0,0,0,0,0,0,0],"sum_hessian":[4.74453E0,1.0031446E0,3.7413855E0,2.466318E0,1.2750676E0,1.0037223E0,1.4625956E0],"tree_param":{"num_deleted":"0","num_feature":"4","num_nodes":"7","size_leaf_vector":"1"}},{"base_weights":[-1.2771417E-1,2.1069434E-2,-4.001481E-2,-1.996991E-2,1.7975534E-1,2.7229005E-2,1.3080963E-3],"categories":[],"categories_nodes":[],"categories_segments":[],"categories_sizes":[],"default_left":[0,0,0,0,0,0,0],"id":65,"left_children":[1,3,-1,-1,5,-1,-1],"loss_changes":[2.3811635E-1,1.9757234E-1,0E0,0E0,4.5966424E-2,0E0,0E0],"parents":[2147483647,0,0,1,1,4,4],"right_children":[2,4,-1,-1,6,-1,-1],"split_conditions":[7.33385E1,4.796632E1,-4.001481E-2,-1.996991E-2,5.732635E1,2.7229005E-2,1.3080963E-3],"split_indices":[3,3,0,0,3,0,0],"split_type":[0,0,0,0,0,0,0],"sum_hessian":[4.666531E0,3.6149633E0,1.0515679E0,1.4036745E0,2.2112887E0,1.01443E0,1.1968588E0],"tree_param":{"num_deleted":"0","num_feature":"4","num_nodes":"7","size_leaf_vector":"1"}},{"base_weights":[-1.2142332E-1,2.085271E-2,-3.8597833E-2,1.634421E-1,-1.9939456E-2,-1.67859E-2,3.7869446E-2],"categories":[],"categories_nodes":[],"categories_segments":[],"categories_sizes":[],"default_left":[0,0,0,0,0,0,0],"id":66,"left_children":[1,3,-1,5,-1,-1,-1],"loss_changes":[2.1989354E-1,1.7732434E-1,0E0,3.0225828E-1,0E0,0E0,0E0],"parents":[2147483647,0,0,1,1,3,3],"right_children":[2,4,-1,6,-1,-1,-1],"split_conditions":[7.33385E1,2.2865765E1,-3.8597833E-2,1.7785912E1,-1.9939456E-2,-1.67859E-2,3.7869446E-2],"split_indices":[3,0,0,0,0,0,0],"split_type":[0,0,0,0,0,0,0],"sum_hessian":[4.628209E0,3.608668E0,1.019541E0,2.3470738E0,1.2615942E0,1.011075E0,1.3359989E0],"tree_param":{"num_deleted":"0","num_feature":"4","num_nodes":"7","size_leaf_vector":"1"}},{"base_weights":[-1.17555924E-1,-3.83091E-2,2.703165E-2,1.5300913E-1,-1.911105E-2,-1.082923E-2,3.237802E-2],"categories":[],"categories_nodes":[],"categories_segments":[],"categories_sizes":[],"default_left":[0,0,0,0,0,0,0],"id":67,"left_children":[1,-1,3,5,-1,-1,-1],"loss_changes":[2.2349721E-1,0E0,1.5368842E-1,1.8794116E-1,0E0,0E0,0E0],"parents":[2147483647,0,0,2,2,3,3],"right_children":[2,-1,4,6,-1,-1,-1],"split_conditions":[3.905748E0,-3.83091E-2,6.560942E1,4.796632E1,-1.911105E-2,-1.082923E-2,3.237802E-2],"split_indices":[1,0,3,3,0,0,0],"split_type":[0,0,0,0,0,0,0],"sum_hessian":[4.551565E0,1.0230997E0,3.5284655E0,2.426017E0,1.1024483E0,1.1034545E0,1.3225626E0],"tree_param":{"num_deleted":"0","num_feature":"4","num_nodes":"7","size_leaf_vector":"1"}},{"base_weights":[-1.13286905E-1,-3.5828322E-2,2.2493057E-2,1.5678245E-1,-1.8504303E-2,-1.0229748E-2,3.229715E-2],"categories":[],"categories_nodes":[],"categories_segments":[],"categories_sizes":[],"default_left":[0,0,0,0,0,0,0],"id":68,"left_children":[1,-1,3,5,-1,-1,-1],"loss_changes":[1.9119635E-1,0E0,1.5395549E-1,1.7354114E-1,0E0,0E0,0E0],"parents":[2147483647,0,0,2,2,3,3],"right_children":[2,-1,4,6,-1,-1,-1],"split_conditions":[3.9327235E0,-3.5828322E-2,2.2949493E1,1.837541E1,-1.8504303E-2,-1.0229748E-2,3.229715E-2],"split_indices":[1,0,0,0,0,0,0],"split_type":[0,0,0,0,0,0,0],"sum_hessian":[4.505313E0,1.0221958E0,3.4831169E0,2.2632194E0,1.2198975E0,1.0346719E0,1.2285475E0],"tree_param":{"num_deleted":"0","num_feature":"4","num_nodes":"7","size_leaf_vector":"1"}},{"base_weights":[-1.0900219E-1,2.5589406E-2,-3.491948E-2,-1.4752288E-2,2.0503512E-2],"categories":[],"categories_nodes":[],"categories_segments":[],"categories_sizes":[],"default_left":[0,0,0,0,0],"id":69,"left_children":[1,3,-1,-1,-1],"loss_changes":[1.8503448E-1,1.6763778E-1,0E0,0E0,0E0],"parents":[2147483647,0,0,1,1],"right_children":[2,4,-1,-1,-1],"split_conditions":[7.235499E1,5.54528E1,-3.491948E-2,-1.4752288E-2,2.0503512E-2],"split_indices":[3,3,0,0,0],"split_type":[0,0,0,0,0],"sum_hessian":[4.447269E0,3.4227812E0,1.0244876E0,1.8326807E0,1.5901005E0],"tree_param":{"num_deleted":"0","num_feature":"4","num_nodes":"5","size_leaf_vector":"1"}},{"base_weights":[-1.04069956E-1,-2.0373705E-1,1.581793E-2,-3.846469E-2,-3.623506E-2,-2.2633707E-2,1.478E-2],"categories":[],"categories_nodes":[],"categories_segments":[],"categories_sizes":[],"default_left":[0,0,0,0,0,0,0],"id":70,"left_children":[1,3,-1,5,-1,-1,-1],"loss_changes":[1.7386962E-1,1.00457266E-1,0E0,1.473864E-1,0E0,0E0,0E0],"parents":[2147483647,0,0,1,1,3,3],"right_children":[2,4,-1,6,-1,-1,-1],"split_conditions":[5.388243E0,2.2865765E1,1.581793E-2,1.7945745E1,-3.623506E-2,-2.2633707E-2,1.478E-2],"split_indices":[1,0,0,0,0,0,0],"split_type":[0,0,0,0,0,0,0],"sum_hessian":[4.419109E0,3.363817E0,1.0552921E0,2.2558103E0,1.1080066E0,1.0159523E0,1.239858E0],"tree_param":{"num_deleted":"0","num_feature":"4","num_nodes":"7","size_leaf_vector":"1"}},{"base_weights":[-9.969878E-2,2.9083235E-2,-3.2960586E-2,-1.671619E-2,1.7044756E-1,2.5806416E-2,-3.324592E-4],"categories":[],"categories_nodes":[],"categories_segments":[],"categories_sizes":[],"default_left":[0,0,0,0,0,0,0],"id":71,"left_children":[1,3,-1,-1,5,-1,-1],"loss_changes":[1.6885972E-1,1.4964041E-1,0E0,0E0,4.7044665E-2,0E0,0E0],"parents":[2147483647,0,0,1,1,4,4],"right_children":[2,4,-1,-1,6,-1,-1],"split_conditions":[7.2118065E1,4.796632E1,-3.2960586E-2,-1.671619E-2,5.8010868E1,2.5806416E-2,-3.324592E-4],"split_indices":[3,3,0,0,3,0,0],"split_type":[0,0,0,0,0,0,0],"sum_hessian":[4.379434E0,3.3669457E0,1.0124884E0,1.3333999E0,2.0335457E0,1.0294309E0,1.0041149E0],"tree_param":{"num_deleted":"0","num_feature":"4","num_nodes":"7","size_leaf_vector":"1"}},{"base_weights":[-9.474794E-2,-1.9103354E-1,1.5359731E-2,-3.2028563E-2,-3.4633365E-2,-2.0957557E-2,1.48469405E-2],"categories":[],"categories_nodes":[],"categories_segments":[],"categories_sizes":[],"default_left":[0,0,0,0,0,0,0],"id":72,"left_children":[1,3,-1,5,-1,-1,-1],"loss_changes":[1.5735203E-1,9.517288E-2,0E0,1.3457023E-1,0E0,0E0,0E0],"parents":[2147483647,0,0,1,1,3,3],"right_children":[2,4,-1,6,-1,-1,-1],"split_conditions":[5.388243E0,2.2865765E1,1.5359731E-2,1.8198097E1,-3.4633365E-2,-2.0957557E-2,1.48469405E-2],"split_indices":[1,0,0,0,0,0,0],"split_type":[0,0,0,0,0,0,0],"sum_hessian":[4.3533535E0,3.303379E0,1.0499744E0,2.2282293E0,1.07515E0,1.0420848E0,1.1861444E0],"tree_param":{"num_deleted":"0","num_feature":"4","num_nodes":"7","size_leaf_vector":"1"}},{"base_weights":[-9.070862E-2,3.2861557E-2,-3.1160776E-2,-1.2683968E-2,1.9422906E-2],"categories":[],"categories_nodes":[],"categories_segments":[],"categories_sizes":[],"default_left":[0,0,0,0,0],"id":73,"left_children":[1,3,-1,-1,-1],"loss_changes":[1.55375E-1,1.3581647E-1,0E0,0E0,0E0],"parents":[2147483647,0,0,1,1],"right_children":[2,4,-1,-1,-1],"split_conditions":[7.177061E1,5.515373E1,-3.1160776E-2,-1.2683968E-2,1.9422906E-2],"split_indices":[3,3,0,0,0],"split_type":[0,0,0,0,0],"sum_hessian":[4.3169765E0,3.31424E0,1.0027366E0,1.7732602E0,1.5409797E0],"tree_param":{"num_deleted":"0","num_feature":"4","num_nodes":"5","size_leaf_vector":"1"}},{"base_weights":[-8.6642146E-2,-2.992706E-2,3.7580576E-2,1.5694901E-1,-1.520323E-2,-8.056095E-3,3.1089062E-2],"categories":[],"categories_nodes":[],"categories_segments":[],"categories_sizes":[],"default_left":[0,0,0,0,0,0,0],"id":74,"left_children":[1,-1,3,5,-1,-1,-1],"loss_changes":[1.5110697E-1,0E0,1.1962059E-1,1.3796464E-1,0E0,0E0,0E0],"parents":[2147483647,0,0,2,2,3,3],"right_children":[2,-1,4,6,-1,-1,-1],"split_conditions":[4.0051026E0,-2.992706E-2,2.2949493E1,1.8606117E1,-1.520323E-2,-8.056095E-3,3.1089062E-2],"split_indices":[1,0,0,0,0,0,0],"split_type":[0,0,0,0,0,0,0],"sum_hessian":[4.29507E0,1.0642605E0,3.2308097E0,2.088369E0,1.1424407E0,1.0087265E0,1.0796425E0],"tree_param":{"num_deleted":"0","num_feature":"4","num_nodes":"7","size_leaf_vector":"1"}},{"base_weights":[-8.285595E-2,3.968618E-2,-2.9634392E-2,-1.4410356E-2,1.7096078E-2],"categories":[],"categories_nodes":[],"categories_segments":[],"categories_sizes":[],"default_left":[0,0,0,0,0],"id":75,"left_children":[1,3,-1,-1,-1],"loss_changes":[1.4911565E-1,1.2639248E-1,0E0,0E0,0E0],"parents":[2147483647,0,0,1,1],"right_children":[2,4,-1,-1,-1],"split_conditions":[7.049947E1,4.796632E1,-2.9634392E-2,-1.4410356E-2,1.7096078E-2],"split_indices":[3,3,0,0,0],"split_type":[0,0,0,0,0],"sum_hessian":[4.250314E0,3.2175474E0,1.0327669E0,1.2999036E0,1.9176438E0],"tree_param":{"num_deleted":"0","num_feature":"4","num_nodes":"5","size_leaf_vector":"1"}},{"base_weights":[-8.005548E-2,-2.8534234E-2,3.8965385E-2,1.5458712E-1,-1.454407E-2,-7.5224056E-3,3.0312968E-2],"categories":[],"categories_nodes":[],"categories_segments":[],"categories_sizes":[],"default_left":[0,0,0,0,0,0,0],"id":76,"left_children":[1,-1,3,5,-1,-1,-1],"loss_changes":[1.3891399E-1,0E0,1.1183397E-1,1.2727702E-1,0E0,0E0,0E0],"parents":[2147483647,0,0,2,2,3,3],"right_children":[2,-1,4,6,-1,-1,-1],"split_conditions":[4.0051026E0,-2.8534234E-2,2.2949493E1,1.8606117E1,-1.454407E-2,-7.5224056E-3,3.0312968E-2],"split_indices":[1,0,0,0,0,0,0],"split_type":[0,0,0,0,0,0,0],"sum_hessian":[4.230357E0,1.0396895E0,3.1906679E0,2.0604672E0,1.1302005E0,1.0027272E0,1.0577402E0],"tree_param":{"num_deleted":"0","num_feature":"4","num_nodes":"7","size_leaf_vector":"1"}},{"base_weights":[-7.653399E-2,4.216279E-2,-2.8586585E-2,-1.0841893E-2,1.944815E-2],"categories":[],"categories_nodes":[],"categories_segments":[],"categories_sizes":[],"default_left":[0,0,0,0,0],"id":77,"left_children":[1,3,-1,-1,-1],"loss_changes":[1.4098617E-1,1.1702587E-1,0E0,0E0,0E0],"parents":[2147483647,0,0,1,1],"right_children":[2,4,-1,-1,-1],"split_conditions":[7.049947E1,5.54528E1,-2.8586585E-2,-1.0841893E-2,1.944815E-2],"split_indices":[3,3,0,0,0],"split_type":[0,0,0,0,0],"sum_hessian":[4.189084E0,3.1828864E0,1.0061979E0,1.7455007E0,1.4373857E0],"tree_param":{"num_deleted":"0","num_feature":"4","num_nodes":"5","size_leaf_vector":"1"}},{"base_weights":[-7.302894E-2,-1.6533151E-1,1.5194304E-2,-1.6043982E-2,-3.1586405E-2,-1.7934168E-2,1.4493833E-2],"categories":[],"categories_nodes":[],"categories_segments":[],"categories_sizes":[],"default_left":[0,0,0,0,0,0,0],"id":78,"left_children":[1,3,-1,5,-1,-1,-1],"loss_changes":[1.3249749E-1,8.809197E-2,0E0,1.0840268E-1,0E0,0E0,0E0],"parents":[2147483647,0,0,1,1,3,3],"right_children":[2,4,-1,6,-1,-1,-1],"split_conditions":[5.388243E0,2.2865765E1,1.5194304E-2,1.8198097E1,-3.1586405E-2,-1.7934168E-2,1.4493833E-2],"split_indices":[1,0,0,0,0,0,0],"split_type":[0,0,0,0,0,0,0],"sum_hessian":[4.170911E0,3.1454728E0,1.0254378E0,2.1348553E0,1.0106176E0,1.0031904E0,1.1316649E0],"tree_param":{"num_deleted":"0","num_feature":"4","num_nodes":"7","size_leaf_vector":"1"}},{"base_weights":[-7.002847E-2,-2.6836107E-2,4.3259196E-2,1.5426253E-1,-1.4570795E-2,-5.732753E-3,2.9598523E-2],"categories":[],"categories_nodes":[],"categories_segments":[],"categories_sizes":[],"default_left":[0,0,0,0,0,0,0],"id":79,"left_children":[1,-1,3,5,-1,-1,-1],"loss_changes":[1.2711233E-1,0E0,1.09170444E-1,1.0960783E-1,0E0,0E0,0E0],"parents":[2147483647,0,0,2,2,3,3],"right_children":[2,-1,4,6,-1,-1,-1],"split_conditions":[4.0051026E0,-2.6836107E-2,6.4053795E1,4.967517E1,-1.4570795E-2,-5.732753E-3,2.9598523E-2],"split_indices":[1,0,3,3,0,0,0],"split_type":[0,0,0,0,0,0,0],"sum_hessian":[4.1406436E0,1.00767E0,3.1329732E0,2.0893178E0,1.0436555E0,1.0769465E0,1.0123713E0],"tree_param":{"num_deleted":"0","num_feature":"4","num_nodes":"7","size_leaf_vector":"1"}},{"base_weights":[-6.677786E-2,-1.5422879E-1,1.4354144E-2,-1.3904474E-2,-2.9261524E-2,-1.6477732E-2,1.4070655E-2],"categories":[],"categories_nodes":[],"categories_segments":[],"categories_sizes":[],"default_left":[0,0,0,0,0,0,0],"id":80,"left_children":[1,3,-1,5,-1,-1,-1],"loss_changes":[1.1624208E-1,7.5468294E-2,0E0,9.511438E-2,0E0,0E0,0E0],"parents":[2147483647,0,0,1,1,3,3],"right_children":[2,4,-1,6,-1,-1,-1],"split_conditions":[5.388243E0,2.2817495E1,1.4354144E-2,1.837541E1,-2.9261524E-2,-1.6477732E-2,1.4070655E-2],"split_indices":[1,0,0,0,0,0,0],"split_type":[0,0,0,0,0,0,0],"sum_hessian":[4.1163926E0,3.0958343E0,1.0205581E0,2.0835667E0,1.0122677E0,1.0212523E0,1.0623143E0],"tree_param":{"num_deleted":"0","num_feature":"4","num_nodes":"7","size_leaf_vector":"1"}},{"base_weights":[-6.385952E-2,7.9252824E-2,-1.9602217E-2,1.4333076E-2,-1.6997758E-3],"categories":[],"categories_nodes":[],"categories_segments":[],"categories_sizes":[],"default_left":[0,0,0,0,0],"id":81,"left_children":[1,3,-1,-1,-1],"loss_changes":[1.1180645E-1,2.1899948E-2,0E0,0E0,0E0],"parents":[2147483647,0,0,1,1],"right_children":[2,4,-1,-1,-1],"split_conditions":[5.6461746E1,5.205438E-1,-1.9602217E-2,1.4333076E-2,-1.6997758E-3],"split_indices":[3,2,0,0,0],"split_type":[0,0,0,0,0],"sum_hessian":[4.0899124E0,2.1558204E0,1.9340919E0,1.000563E0,1.1552573E0],"tree_param":{"num_deleted":"0","num_feature":"4","num_nodes":"5","size_leaf_vector":"1"}},{"base_weights":[-5.9002925E-2,-2.4320727E-2,4.6475608E-2,1.5062405E-1,-1.3532761E-2,-5.5660536E-3,2.7828166E-2],"categories":[],"categories_nodes":[],"categories_segments":[],"categories_sizes":[],"default_left":[0,0,0,0,0,0,0],"id":82,"left_children":[1,-1,3,5,-1,-1,-1],"loss_changes":[1.0996419E-1,0E0,9.741856E-2,9.606896E-2,0E0,0E0,0E0],"parents":[2147483647,0,0,2,2,3,3],"right_children":[2,-1,4,6,-1,-1,-1],"split_conditions":[4.0218205E0,-2.4320727E-2,6.4053795E1,4.8316998E1,-1.3532761E-2,-5.5660536E-3,2.7828166E-2],"split_indices":[1,0,3,3,0,0,0],"split_type":[0,0,0,0,0,0,0],"sum_hessian":[4.077869E0,1.0093758E0,3.0684931E0,2.0599325E0,1.0085607E0,1.0030572E0,1.0568751E0],"tree_param":{"num_deleted":"0","num_feature":"4","num_nodes":"7","size_leaf_vector":"1"}},{"base_weights":[-5.641783E-2,-1.4012864E-1,1.394534E-2,-3.243286E-4,-2.7186349E-2],"categories":[],"categories_nodes":[],"categories_segments":[],"categories_sizes":[],"default_left":[0,0,0,0,0],"id":83,"left_children":[1,3,-1,-1,-1],"loss_changes":[1.024652E-1,7.200471E-2,0E0,0E0,0E0],"parents":[2147483647,0,0,1,1],"right_children":[2,4,-1,-1,-1],"split_conditions":[5.388243E0,2.255116E1,1.394534E-2,-3.243286E-4,-2.7186349E-2],"split_indices":[1,0,0,0,0],"split_type":[0,0,0,0,0],"sum_hessian":[4.057395E0,3.0419319E0,1.0154632E0,1.9942899E0,1.047642E0],"tree_param":{"num_deleted":"0","num_feature":"4","num_nodes":"5","size_leaf_vector":"1"}},{"base_weights":[-5.365411E-2,-2.3107495E-2,4.950356E-2,2.4037503E-2,-2.022729E-2],"categories":[],"categories_nodes":[],"categories_segments":[],"categories_sizes":[],"default_left":[0,0,0,0,0],"id":84,"left_children":[1,-1,3,-1,-1],"loss_changes":[1.037222E-1,0E0,2.4142201E-1,0E0,0E0],"parents":[2147483647,0,0,2,2],"right_children":[2,-1,4,-1,-1],"split_conditions":[1.744334E1,-2.3107495E-2,2.2949493E1,2.4037503E-2,-2.022729E-2],"split_indices":[0,0,0,0,0],"split_type":[0,0,0,0,0],"sum_hessian":[4.042157E0,1.0302367E0,3.0119207E0,1.7389264E0,1.2729942E0],"tree_param":{"num_deleted":"0","num_feature":"4","num_nodes":"5","size_leaf_vector":"1"}},{"base_weights":[-5.251373E-2,8.339676E-2,-1.814621E-2,1.3993368E-2,-9.44145E-4],"categories":[],"categories_nodes":[],"categories_segments":[],"categories_sizes":[],"default_left":[0,0,0,0,0],"id":85,"left_children":[1,3,-1,-1,-1],"loss_changes":[1.0285075E-1,1.7707458E-2,0E0,0E0,0E0],"parents":[2147483647,0,0,1,1],"right_children":[2,4,-1,-1,-1],"split_conditions":[5.6461746E1,5.38395E-1,-1.814621E-2,1.3993368E-2,-9.44145E-4],"split_indices":[3,2,0,0,0],"split_type":[0,0,0,0,0],"sum_hessian":[4.005148E0,2.1219184E0,1.8832294E0,1.0035115E0,1.1184068E0],"tree_param":{"num_deleted":"0","num_feature":"4","num_nodes":"5","size_leaf_vector":"1"}},{"base_weights":[-4.8395973E-2,-2.1873837E-2,4.9971987E-2,2.3142574E-2,-1.9139133E-2],"categories":[],"categories_nodes":[],"categories_segments":[],"categories_sizes":[],"default_left":[0,0,0,0,0],"id":86,"left_children":[1,-1,3,-1,-1],"loss_changes":[9.462692E-2,0E0,2.1862139E-1,0E0,0E0],"parents":[2147483647,0,0,2,2],"right_children":[2,-1,4,-1,-1],"split_conditions":[1.744334E1,-2.1873837E-2,2.2949493E1,2.3142574E-2,-1.9139133E-2],"split_indices":[0,0,0,0,0],"split_type":[0,0,0,0,0],"sum_hessian":[3.9949243E0,1.0144833E0,2.980441E0,1.7248753E0,1.2555656E0],"tree_param":{"num_deleted":"0","num_feature":"4","num_nodes":"5","size_leaf_vector":"1"}},{"base_weights":[-4.7464415E-2,8.399885E-2,-1.7388044E-2,1.3178076E-2,-1.305128E-4],"categories":[],"categories_nodes":[],"categories_segments":[],"categories_sizes":[],"default_left":[0,0,0,0,0],"id":87,"left_children":[1,3,-1,-1,-1],"loss_changes":[9.705533E-2,1.2833197E-2,0E0,0E0,0E0],"parents":[2147483647,0,0,1,1],"right_children":[2,4,-1,-1,-1],"split_conditions":[5.6461746E1,5.4569596E-1,-1.7388044E-2,1.3178076E-2,-1.305128E-4],"split_indices":[3,2,0,0,0],"split_type":[0,0,0,0,0],"sum_hessian":[3.9611442E0,2.1062927E0,1.8548515E0,1.0008453E0,1.1054473E0],"tree_param":{"num_deleted":"0","num_feature":"4","num_nodes":"5","size_leaf_vector":"1"}},{"base_weights":[-4.368861E-2,-1.3860933E-1,1.2008406E-2,2.4461066E-3,-2.1120107E-2],"categories":[],"categories_nodes":[],"categories_segments":[],"categories_sizes":[],"default_left":[0,0,0,0,0],"id":88,"left_children":[1,3,-1,-1,-1],"loss_changes":[9.362558E-2,4.7771767E-2,0E0,0E0,0E0],"parents":[2147483647,0,0,1,1],"right_children":[2,4,-1,-1,-1],"split_conditions":[5.086508E0,3.8628772E-1,1.2008406E-2,2.4461066E-3,-2.1120107E-2],"split_indices":[1,2,0,0,0],"split_type":[0,0,0,0,0],"sum_hessian":[3.9519928E0,2.599184E0,1.3528087E0,1.0048705E0,1.5943136E0],"tree_param":{"num_deleted":"0","num_feature":"4","num_nodes":"5","size_leaf_vector":"1"}},{"base_weights":[-4.0742178E-2,8.227576E-2,-1.6057035E-2,1.23252785E-2,3.1743172E-4],"categories":[],"categories_nodes":[],"categories_segments":[],"categories_sizes":[],"default_left":[0,0,0,0,0],"id":89,"left_children":[1,3,-1,-1,-1],"loss_changes":[8.609412E-2,9.65967E-3,0E0,0E0,0E0],"parents":[2147483647,0,0,1,1],"right_children":[2,4,-1,-1,-1],"split_conditions":[5.6461746E1,5.534718E-1,-1.6057035E-2,1.23252785E-2,3.1743172E-4],"split_indices":[3,2,0,0,0],"split_type":[0,0,0,0,0],"sum_hessian":[3.9442375E0,2.1008496E0,1.8433878E0,1.0162431E0,1.0846065E0],"tree_param":{"num_deleted":"0","num_feature":"4","num_nodes":"5","size_leaf_vector":"1"}},{"base_weights":[-3.7428904E-2,-1.1637967E-1,1.3651966E-2,9.5318974E-4,-2.3848506E-2],"categories":[],"categories_nodes":[],"categories_segments":[],"categories_sizes":[],"default_left":[0,0,0,0,0],"id":90,"left_children":[1,3,-1,-1,-1],"loss_changes":[8.368275E-2,6.277521E-2,0E0,0E0,0E0],"parents":[2147483647,0,0,1,1],"right_children":[2,4,-1,-1,-1],"split_conditions":[5.3745985E0,2.2365095E1,1.3651966E-2,9.5318974E-4,-2.3848506E-2],"split_indices":[1,0,0,0,0],"split_type":[0,0,0,0,0],"sum_hessian":[3.936489E0,2.9352214E0,1.0012677E0,1.8989825E0,1.036239E0],"tree_param":{"num_deleted":"0","num_feature":"4","num_nodes":"5","size_leaf_vector":"1"}},{"base_weights":[-3.5673164E-2,8.1122376E-2,-1.507518E-2,1.2005965E-2,4.3419036E-4],"categories":[],"categories_nodes":[],"categories_segments":[],"categories_sizes":[],"default_left":[0,0,0,0,0],"id":91,"left_children":[1,3,-1,-1,-1],"loss_changes":[7.8411564E-2,8.728387E-3,0E0,0E0,0E0],"parents":[2147483647,0,0,1,1],"right_children":[2,4,-1,-1,-1],"split_conditions":[5.6461746E1,5.534718E-1,-1.507518E-2,1.2005965E-2,4.3419036E-4],"split_indices":[3,2,0,0,0],"split_type":[0,0,0,0,0],"sum_hessian":[3.9240253E0,2.0939276E0,1.8300977E0,1.0153464E0,1.0785813E0],"tree_param":{"num_deleted":"0","num_feature":"4","num_nodes":"5","size_leaf_vector":"1"}},{"base_weights":[-3.2695398E-2,-1.1989671E-1,1.1410581E-2,2.5040638E-3,-1.8614117E-2],"categories":[],"categories_nodes":[],"categories_segments":[],"categories_sizes":[],"default_left":[0,0,0,0,0],"id":92,"left_children":[1,3,-1,-1,-1],"loss_changes":[7.6628104E-2,3.8961403E-2,0E0,0E0,0E0],"parents":[2147483647,0,0,1,1],"right_children":[2,4,-1,-1,-1],"split_conditions":[5.086508E0,3.8938978E-1,1.1410581E-2,2.5040638E-3,-1.8614117E-2],"split_indices":[1,2,0,0,0],"split_type":[0,0,0,0,0],"sum_hessian":[3.9172661E0,2.5724676E0,1.3447986E0,1.0020537E0,1.5704138E0],"tree_param":{"num_deleted":"0","num_feature":"4","num_nodes":"5","size_leaf_vector":"1"}},{"base_weights":[-3.0425442E-2,6.256891E-2,-1.7234754E-2,-1.7990451E-2,2.2626178E-2],"categories":[],"categories_nodes":[],"categories_segments":[],"categories_sizes":[],"default_left":[0,0,0,0,0],"id":93,"left_children":[1,3,-1,-1,-1],"loss_changes":[7.560535E-2,1.8759784E-1,0E0,0E0,0E0],"parents":[2147483647,0,0,1,1],"right_children":[2,4,-1,-1,-1],"split_conditions":[2.2949493E1,1.7595716E1,-1.7234754E-2,-1.7990451E-2,2.2626178E-2],"split_indices":[0,0,0,0,0],"split_type":[0,0,0,0,0],"sum_hessian":[3.9115005E0,2.7008815E0,1.2106189E0,1.0485938E0,1.6522878E0],"tree_param":{"num_deleted":"0","num_feature":"4","num_nodes":"5","size_leaf_vector":"1"}},{"base_weights":[-3.0120566E-2,8.2727574E-2,-1.4306924E-2,1.1499602E-2,1.1458234E-3],"categories":[],"categories_nodes":[],"categories_segments":[],"categories_sizes":[],"default_left":[0,0,0,0,0],"id":94,"left_children":[1,3,-1,-1,-1],"loss_changes":[7.4077114E-2,5.757075E-3,0E0,0E0,0E0],"parents":[2147483647,0,0,1,1],"right_children":[2,4,-1,-1,-1],"split_conditions":[5.6461746E1,5.534718E-1,-1.4306924E-2,1.1499602E-2,1.1458234E-3],"split_indices":[3,2,0,0,0],"split_type":[0,0,0,0,0],"sum_hessian":[3.8831875E0,2.0763004E0,1.8068873E0,1.0068775E0,1.0694228E0],"tree_param":{"num_deleted":"0","num_feature":"4","num_nodes":"5","size_leaf_vector":"1"}},{"base_weights":[-2.7490858E-2,6.1422434E-2,-1.6382987E-2,-1.700238E-2,2.1692809E-2],"categories":[],"categories_nodes":[],"categories_segments":[],"categories_sizes":[],"default_left":[0,0,0,0,0],"id":95,"left_children":[1,3,-1,-1,-1],"loss_changes":[6.9185846E-2,1.69307E-1,0E0,0E0,0E0],"parents":[2147483647,0,0,1,1],"right_children":[2,4,-1,-1,-1],"split_conditions":[2.2949493E1,1.7595716E1,-1.6382987E-2,-1.700238E-2,2.1692809E-2],"split_indices":[0,0,0,0,0],"split_type":[0,0,0,0,0],"sum_hessian":[3.877191E0,2.6793466E0,1.1978446E0,1.0392387E0,1.6401078E0],"tree_param":{"num_deleted":"0","num_feature":"4","num_nodes":"5","size_leaf_vector":"1"}},{"base_weights":[-2.728254E-2,8.21785E-2,-1.3782203E-2,1.1108148E-2,1.4342364E-3],"categories":[],"categories_nodes":[],"categories_segments":[],"categories_sizes":[],"default_left":[0,0,0,0,0],"id":96,"left_children":[1,3,-1,-1,-1],"loss_changes":[7.002569E-2,4.41432E-3,0E0,0E0,0E0],"parents":[2147483647,0,0,1,1],"right_children":[2,4,-1,-1,-1],"split_conditions":[5.6461746E1,5.534718E-1,-1.3782203E-2,1.1108148E-2,1.4342364E-3],"split_indices":[3,2,0,0,0],"split_type":[0,0,0,0,0],"sum_hessian":[3.8513062E0,2.064006E0,1.7873001E0,1.0003076E0,1.0636985E0],"tree_param":{"num_deleted":"0","num_feature":"4","num_nodes":"5","size_leaf_vector":"1"}},{"base_weights":[-2.4845432E-2,-1.000064E-1,1.2863035E-2,6.4175966E-4,-1.981014E-2],"categories":[],"categories_nodes":[],"categories_segments":[],"categories_sizes":[],"default_left":[0,0,0,0,0],"id":97,"left_children":[1,3,-1,-1,-1],"loss_changes":[6.876254E-2,4.1103255E-2,0E0,0E0,0E0],"parents":[2147483647,0,0,1,1],"right_children":[2,4,-1,-1,-1],"split_conditions":[5.3346E0,2.231971E1,1.2863035E-2,6.4175966E-4,-1.981014E-2],"split_indices":[1,0,0,0,0],"split_type":[0,0,0,0,0],"sum_hessian":[3.8458438E0,2.815441E0,1.0304029E0,1.79865E0,1.016791E0],"tree_param":{"num_deleted":"0","num_feature":"4","num_nodes":"5","size_leaf_vector":"1"}},{"base_weights":[-2.372158E-2,6.3660055E-2,-1.5466432E-2,-9.726842E-3,2.398903E-2],"categories":[],"categories_nodes":[],"categories_segments":[],"categories_sizes":[],"default_left":[0,0,0,0,0],"id":98,"left_children":[1,3,-1,-1,-1],"loss_changes":[6.5187E-2,1.2569416E-1,0E0,0E0,0E0],"parents":[2147483647,0,0,1,1],"right_children":[2,4,-1,-1,-1],"split_conditions":[6.560942E1,5.515373E1,-1.5466432E-2,-9.726842E-3,2.398903E-2],"split_indices":[3,3,0,0,0],"split_type":[0,0,0,0,0],"sum_hessian":[3.8366632E0,2.609264E0,1.2273995E0,1.5980397E0,1.0112242E0],"tree_param":{"num_deleted":"0","num_feature":"4","num_nodes":"5","size_leaf_vector":"1"}},{"base_weights":[-2.1640167E-2,8.177605E-2,-1.2773536E-2,1.069592E-2,1.7424738E-3],"categories":[],"categories_nodes":[],"categories_segments":[],"categories_sizes":[],"default_left":[0,0,0,0,0],"id":99,"left_children":[1,3,-1,-1,-1],"loss_changes":[6.3417286E-2,3.0862913E-3,0E0,0E0,0E0],"parents":[2147483647,0,0,1,1],"right_children":[2,4,-1,-1,-1],"split_conditions":[5.6461746E1,5.6391954E-1,-1.2773536E-2,1.069592E-2,1.7424738E-3],"split_indices":[3,2,0,0,0],"split_type":[0,0,0,0,0],"sum_hessian":[3.8279045E0,2.054501E0,1.7734034E0,1.0007539E0,1.0537473E0],"tree_param":{"num_deleted":"0","num_feature":"4","num_nodes":"5","size_leaf_vector":"1"}}]},"name":"gbtree"},"learner_model_param":{"base_score":"[1.165E-1]","boost_from_average":"1","num_class":"0","num_feature":"4","num_target":"1"},"objective":{"name":"binary:logistic","reg_loss_param":{"scale_pos_weight":"1"}}},"version":[3,2,0]}